{"learner":{"attributes":{"best_iteration":"632","best_score":"0.5071640435243026","scikit_learn":"{\"_estimator_type\": \"classifier\"}"},"feature_names":["BMI","MentHlth","PhysHlth","HighBP","HighChol","CholCheck","Smoker","Stroke","HeartDiseaseorAttack","PhysActivity","Fruits","Veggies","HvyAlcoholConsump","AnyHealthcare","NoDocbcCost","GenHlth","DiffWalk","Sex","Age","Education","Income"],"feature_types":["float","float","float","int","int","int","int","int","int","int","int","int","int","int","int","int","int","int","int","int","int"],"gradient_booster":{"model":{"cats":{"enc":[],"feature_segments":[],"sorted_idx":[]},"gbtree_model_param":{"num_parallel_tree":"1","num_trees":"683"},"iteration_indptr":[0,1,2,3,4,5,6,7,8,9,10,11,12,13,14,15,16,17,18,19,20,21,22,23,24,25,26,27,28,29,30,31,32,33,34,35,36,37,38,39,40,41,42,43,44,45,46,47,48,49,50,51,52,53,54,55,56,57,58,59,60,61,62,63,64,65,66,67,68,69,70,71,72,73,74,75,76,77,78,79,80,81,82,83,84,85,86,87,88,89,90,91,92,93,94,95,96,97,98,99,100,101,102,103,104,105,106,107,108,109,110,111,112,113,114,115,116,117,118,119,120,121,122,123,124,125,126,127,128,129,130,131,132,133,134,135,136,137,138,139,140,141,142,143,144,145,146,147,148,149,150,151,152,153,154,155,156,157,158,159,160,161,162,163,164,165,166,167,168,169,170,171,172,173,174,175,176,177,178,179,180,181,182,183,184,185,186,187,188,189,190,191,192,193,194,195,196,197,198,199,200,201,202,203,204,205,206,207,208,209,210,211,212,213,214,215,216,217,218,219,220,221,222,223,224,225,226,227,228,229,230,231,232,233,234,235,236,237,238,239,240,241,242,243,244,245,246,247,248,249,250,251,252,253,254,255,256,257,258,259,260,261,262,263,264,265,266,267,268,269,270,271,272,273,274,275,276,277,278,279,280,281,282,283,284,285,286,287,288,289,290,291,292,293,294,295,296,297,298,299,300,301,302,303,304,305,306,307,308,309,310,311,312,313,314,315,316,317,318,319,320,321,322,323,324,325,326,327,328,329,330,331,332,333,334,335,336,337,338,339,340,341,342,343,344,345,346,347,348,349,350,351,352,353,354,355,356,357,358,359,360,361,362,363,364,365,366,367,368,369,370,371,372,373,374,375,376,377,378,379,380,381,382,383,384,385,386,387,388,389,390,391,392,393,394,395,396,397,398,399,400,401,402,403,404,405,406,407,408,409,410,411,412,413,414,415,416,417,418,419,420,421,422,423,424,425,426,427,428,429,430,431,432,433,434,435,436,437,438,439,440,441,442,443,444,445,446,447,448,449,450,451,452,453,454,455,456,457,458,459,460,461,462,463,464,465,466,467,468,469,470,471,472,473,474,475,476,477,478,479,480,481,482,483,484,485,486,487,488,489,490,491,492,493,494,495,496,497,498,499,500,501,502,503,504,505,506,507,508,509,510,511,512,513,514,515,516,517,518,519,520,521,522,523,524,525,526,527,528,529,530,531,532,533,534,535,536,537,538,539,540,541,542,543,544,545,546,547,548,549,550,551,552,553,554,555,556,557,558,559,560,561,562,563,564,565,566,567,568,569,570,571,572,573,574,575,576,577,578,579,580,581,582,583,584,585,586,587,588,589,590,591,592,593,594,595,596,597,598,599,600,601,602,603,604,605,606,607,608,609,610,611,612,613,614,615,616,617,618,619,620,621,622,623,624,625,626,627,628,629,630,631,632,633,634,635,636,637,638,639,640,641,642,643,644,645,646,647,648,649,650,651,652,653,654,655,656,657,658,659,660,661,662,663,664,665,666,667,668,669,670,671,672,673,674,675,676,677,678,679,680,681,682,683],"tree_info":[0,0,0,0,0,0,0,0,0,0,0,0,0,0,0,0,0,0,0,0,0,0,0,0,0,0,0,0,0,0,0,0,0,0,0,0,0,0,0,0,0,0,0,0,0,0,0,0,0,0,0,0,0,0,0,0,0,0,0,0,0,0,0,0,0,0,0,0,0,0,0,0,0,0,0,0,0,0,0,0,0,0,0,0,0,0,0,0,0,0,0,0,0,0,0,0,0,0,0,0,0,0,0,0,0,0,0,0,0,0,0,0,0,0,0,0,0,0,0,0,0,0,0,0,0,0,0,0,0,0,0,0,0,0,0,0,0,0,0,0,0,0,0,0,0,0,0,0,0,0,0,0,0,0,0,0,0,0,0,0,0,0,0,0,0,0,0,0,0,0,0,0,0,0,0,0,0,0,0,0,0,0,0,0,0,0,0,0,0,0,0,0,0,0,0,0,0,0,0,0,0,0,0,0,0,0,0,0,0,0,0,0,0,0,0,0,0,0,0,0,0,0,0,0,0,0,0,0,0,0,0,0,0,0,0,0,0,0,0,0,0,0,0,0,0,0,0,0,0,0,0,0,0,0,0,0,0,0,0,0,0,0,0,0,0,0,0,0,0,0,0,0,0,0,0,0,0,0,0,0,0,0,0,0,0,0,0,0,0,0,0,0,0,0,0,0,0,0,0,0,0,0,0,0,0,0,0,0,0,0,0,0,0,0,0,0,0,0,0,0,0,0,0,0,0,0,0,0,0,0,0,0,0,0,0,0,0,0,0,0,0,0,0,0,0,0,0,0,0,0,0,0,0,0,0,0,0,0,0,0,0,0,0,0,0,0,0,0,0,0,0,0,0,0,0,0,0,0,0,0,0,0,0,0,0,0,0,0,0,0,0,0,0,0,0,0,0,0,0,0,0,0,0,0,0,0,0,0,0,0,0,0,0,0,0,0,0,0,0,0,0,0,0,0,0,0,0,0,0,0,0,0,0,0,0,0,0,0,0,0,0,0,0,0,0,0,0,0,0,0,0,0,0,0,0,0,0,0,0,0,0,0,0,0,0,0,0,0,0,0,0,0,0,0,0,0,0,0,0,0,0,0,0,0,0,0,0,0,0,0,0,0,0,0,0,0,0,0,0,0,0,0,0,0,0,0,0,0,0,0,0,0,0,0,0,0,0,0,0,0,0,0,0,0,0,0,0,0,0,0,0,0,0,0,0,0,0,0,0,0,0,0,0,0,0,0,0,0,0,0,0,0,0,0,0,0,0,0,0,0,0,0,0,0,0,0,0,0,0,0,0,0,0,0,0,0,0,0,0,0,0,0,0,0,0,0,0,0,0,0,0,0,0,0,0,0,0,0,0,0,0,0,0,0,0,0,0,0,0,0,0,0,0,0,0,0,0,0,0,0,0,0,0,0,0,0,0,0,0,0,0,0,0,0,0,0,0,0,0,0,0,0,0,0,0,0,0,0,0,0,0,0,0,0,0,0,0,0,0,0,0,0,0,0,0,0,0,0,0,0,0,0,0,0,0,0,0,0,0,0,0,0,0],"trees":[{"base_weights":[-1.26702655E-2,-7.83343E-1,7.0785344E-1,-9.4310987E-1,2.92599E-1,3.499201E-1,1.2475029E0,-1.2102362E0,-5.12752E-1,-3.933865E-1,5.8207506E-1,-5.7951715E-2,5.835428E-1,6.82183E-1,1.5168977E0,-1.318993E-2,-9.418243E-3,-7.694678E-3,-3.5889662E-4,1.2594482E-4,-6.9306926E-3,7.6491437E-3,-2.5974023E-3,-4.5525087E-3,1.7138602E-3,3.9435984E-3,1.07072685E-2,4.177089E-3,1.1305872E-2,1.353044E-2,1.6910058E-2],"categories":[],"categories_nodes":[],"categories_segments":[],"categories_sizes":[],"default_left":[0,0,0,0,0,0,0,0,0,0,0,0,0,0,0,0,0,0,0,0,0,0,0,0,0,0,0,0,0,0,0],"id":0,"left_children":[1,3,5,7,9,11,13,15,17,19,21,23,25,27,29,-1,-1,-1,-1,-1,-1,-1,-1,-1,-1,-1,-1,-1,-1,-1,-1],"loss_changes":[1.0260825E3,1.5375507E2,1.8402994E2,8.8776855E1,2.3303556E1,5.487783E1,5.690399E1,1.274292E1,3.6643944E1,4.2767544E0,1.2838337E1,1.92597E1,3.331453E1,1.4304222E1,5.0391846E0,0E0,0E0,0E0,0E0,0E0,0E0,0E0,0E0,0E0,0E0,0E0,0E0,0E0,0E0,0E0,0E0],"parents":[2147483647,0,0,1,1,2,2,3,3,4,4,5,5,6,6,7,7,8,8,9,9,10,10,11,11,12,12,13,13,14,14],"right_children":[2,4,6,8,10,12,14,16,18,20,22,24,26,28,30,-1,-1,-1,-1,-1,-1,-1,-1,-1,-1,-1,-1,-1,-1,-1,-1],"split_conditions":[1E0,1E0,3.571536E-1,-2.0778726E-1,-3.4902248E-1,1E0,1E0,1E0,1E0,1E0,7E0,-4.9025768E-1,1E0,1E0,1E0,-1.318993E-2,-9.418243E-3,-7.694678E-3,-3.5889662E-4,1.2594482E-4,-6.9306926E-3,7.6491437E-3,-2.5974023E-3,-4.5525087E-3,1.7138602E-3,3.9435984E-3,1.07072685E-2,4.177089E-3,1.1305872E-2,1.353044E-2,1.6910058E-2],"split_indices":[3,16,0,0,0,4,4,4,4,9,20,0,16,16,16,0,0,0,0,0,0,0,0,0,0,0,0,0,0,0,0],"split_type":[0,0,0,0,0,0,0,0,0,0,0,0,0,0,0,0,0,0,0,0,0,0,0,0,0,0,0,0,0,0,0],"sum_hessian":[1.8458401E3,8.9184E2,9.5400006E2,7.7664E2,1.15200005E2,5.7456E2,3.7944E2,4.7808002E2,2.9856E2,3.408E1,8.112E1,2.0952E2,3.6504E2,1.23600006E2,2.5584001E2,3.3744E2,1.4064E2,1.9368001E2,1.04880005E2,1.4880001E1,1.92E1,6.672E1,1.4400001E1,7.632E1,1.3320001E2,2.6424002E2,1.008E2,7.896001E1,4.4640003E1,1.3632E2,1.19520004E2],"tree_param":{"num_deleted":"0","num_feature":"21","num_nodes":"31","size_leaf_vector":"1"}},{"base_weights":[3.054985E-2,-7.629953E-1,7.596182E-1,-1.2198141E0,-1.4139584E-1,-7.510087E-2,1.0982537E0,-1.3954686E0,-8.7175906E-1,-6.475204E-1,2.988492E-1,-7.685935E-1,1.7396808E-1,7.7124363E-1,1.4938185E0,-1.4779094E-2,-1.0960432E-2,-1.0593764E-2,-2.985469E-3,-9.849994E-3,-1.6829204E-3,-7.713539E-3,5.6878063E-3,-9.183341E-3,-7.129128E-4,-3.014634E-3,5.5916966E-3,-6.5601557E-3,8.5434085E-3,9.800864E-3,1.6500441E-2],"categories":[],"categories_nodes":[],"categories_segments":[],"categories_sizes":[],"default_left":[0,0,0,0,0,0,0,0,0,0,0,0,0,0,0,0,0,0,0,0,0,0,0,0,0,0,0,0,0,0,0],"id":1,"left_children":[1,3,5,7,9,11,13,15,17,19,21,23,25,27,29,-1,-1,-1,-1,-1,-1,-1,-1,-1,-1,-1,-1,-1,-1,-1,-1],"loss_changes":[1.0738938E3,2.5221289E2,2.735255E2,3.009674E1,8.433707E1,4.851887E1,8.787543E1,6.741638E0,1.8445038E1,2.8296677E1,5.8978935E1,7.682766E0,3.806285E1,4.5491425E1,2.3295532E1,0E0,0E0,0E0,0E0,0E0,0E0,0E0,0E0,0E0,0E0,0E0,0E0,0E0,0E0,0E0,0E0],"parents":[2147483647,0,0,1,1,2,2,3,3,4,4,5,5,6,6,7,7,8,8,9,9,10,10,11,11,12,12,13,13,14,14],"right_children":[2,4,6,8,10,12,14,16,18,20,22,24,26,28,30,-1,-1,-1,-1,-1,-1,-1,-1,-1,-1,-1,-1,-1,-1,-1,-1],"split_conditions":[1E0,2E0,2E0,8E0,7E0,-4.9025768E-1,3.571536E-1,7.468316E-2,-6.655205E-2,2.1591838E-1,-7.727281E-1,1.2E1,9E0,5E0,7E0,-1.4779094E-2,-1.0960432E-2,-1.0593764E-2,-2.985469E-3,-9.849994E-3,-1.6829204E-3,-7.713539E-3,5.6878063E-3,-9.183341E-3,-7.129128E-4,-3.014634E-3,5.5916966E-3,-6.5601557E-3,8.5434085E-3,9.800864E-3,1.6500441E-2],"split_indices":[3,15,15,18,18,0,0,0,0,0,0,18,18,18,18,0,0,0,0,0,0,0,0,0,0,0,0,0,0,0,0],"split_type":[0,0,0,0,0,0,0,0,0,0,0,0,0,0,0,0,0,0,0,0,0,0,0,0,0,0,0,0,0,0,0],"sum_hessian":[1.8541842E3,8.8781104E2,9.663731E2,5.1117886E2,3.7663217E2,2.791243E2,6.8724884E2,3.377272E2,1.7345164E2,1.7498784E2,2.0164435E2,7.320654E1,2.0591776E2,3.778408E2,3.0940802E2,2.6172943E2,7.599777E1,1.3004022E2,4.3411434E1,1.0206025E2,7.292758E1,4.024128E1,1.6140306E2,6.0004105E1,1.3202435E1,9.226183E1,1.1365592E2,2.0408817E1,3.5743198E2,7.384611E1,2.3556192E2],"tree_param":{"num_deleted":"0","num_feature":"21","num_nodes":"31","size_leaf_vector":"1"}},{"base_weights":[-1.6285187E-2,-7.646638E-1,6.7722684E-1,-1.185351E0,-1.6553676E-1,-1.2520483E-1,9.9928784E-1,-1.355456E0,-8.7664753E-1,-6.6641325E-1,2.3524792E-1,-5.623517E-1,-1.2985751E-2,7.144957E-1,1.3064017E0,-1.5372598E-2,-1.2478434E-2,-1.2576097E-2,-6.368637E-3,-1.1984417E-2,-4.7571394E-3,1.102526E-3,8.855542E-3,-6.2382766E-3,3.181477E-3,-2.8174117E-3,2.0049203E-3,-1.4609469E-3,8.186389E-3,-3.23812E-3,1.3575334E-2],"categories":[],"categories_nodes":[],"categories_segments":[],"categories_sizes":[],"default_left":[0,0,0,0,0,0,0,0,0,0,0,0,0,0,0,0,0,0,0,0,0,0,0,0,0,0,0,0,0,0,0],"id":2,"left_children":[1,3,5,7,9,11,13,15,17,19,21,23,25,27,29,-1,-1,-1,-1,-1,-1,-1,-1,-1,-1,-1,-1,-1,-1,-1,-1],"loss_changes":[9.663418E2,2.2551355E2,2.4986984E2,2.642987E1,7.454709E1,1.3613976E1,5.9391785E1,4.6799927E0,1.6526062E1,1.6168274E1,1.6695438E1,3.2673645E0,1.2791713E1,3.239084E1,2.8000854E1,0E0,0E0,0E0,0E0,0E0,0E0,0E0,0E0,0E0,0E0,0E0,0E0,0E0,0E0,0E0,0E0],"parents":[2147483647,0,0,1,1,2,2,3,3,4,4,5,5,6,6,7,7,8,8,9,9,10,10,11,11,12,12,13,13,14,14],"right_children":[2,4,6,8,10,12,14,16,18,20,22,24,26,28,30,-1,-1,-1,-1,-1,-1,-1,-1,-1,-1,-1,-1,-1,-1,-1,-1],"split_conditions":[1E0,2E0,2E0,8E0,7E0,1E0,3E0,1E0,1E0,3E0,1E0,1E0,9E0,6E0,4E0,-1.5372598E-2,-1.2478434E-2,-1.2576097E-2,-6.368637E-3,-1.1984417E-2,-4.7571394E-3,1.102526E-3,8.855542E-3,-6.2382766E-3,3.181477E-3,-2.8174117E-3,2.0049203E-3,-1.4609469E-3,8.186389E-3,-3.23812E-3,1.3575334E-2],"split_indices":[3,15,15,18,18,15,15,15,15,18,8,8,18,18,18,0,0,0,0,0,0,0,0,0,0,0,0,0,0,0,0],"split_type":[0,0,0,0,0,0,0,0,0,0,0,0,0,0,0,0,0,0,0,0,0,0,0,0,0,0,0,0,0,0,0],"sum_hessian":[1.8598981E3,8.9451337E2,9.6538464E2,5.2493964E2,3.6957373E2,2.7666663E2,6.88718E2,3.3625967E2,1.8867996E2,1.639794E2,2.0559433E2,5.5695377E1,2.2097127E2,3.5907135E2,3.2964667E2,1.2009038E2,2.161693E2,7.124424E1,1.1743572E2,4.1873325E1,1.2210607E2,1.7342908E2,3.216525E1,5.233302E1,3.3623552E0,9.767928E1,1.23291985E2,3.871832E1,3.2035303E2,9.862772E0,3.197839E2],"tree_param":{"num_deleted":"0","num_feature":"21","num_nodes":"31","size_leaf_vector":"1"}},{"base_weights":[-6.8502896E-3,-5.2406806E-1,5.655235E-1,-9.1858923E-1,-2.4539314E-2,2.8052146E-2,9.764437E-1,-9.923656E-1,1.8585995E-1,-2.0650335E-1,7.240022E-1,-1.5655674E-1,7.929598E-1,4.8866758E-1,1.2214221E0,-1.2622997E-2,-8.279821E-3,-2.8082102E-3,6.734813E-3,-3.8157946E-3,1.550362E-3,1.270705E-3,9.409403E-3,-2.5329113E-3,8.037347E-3,4.737266E-3,1.2279877E-2,3.10009E-3,1.222342E-2,1.0417446E-2,1.5302779E-2],"categories":[],"categories_nodes":[],"categories_segments":[],"categories_sizes":[],"default_left":[0,0,0,0,0,0,0,0,0,0,0,0,0,0,0,0,0,0,0,0,0,0,0,0,0,0,0,0,0,0,0],"id":3,"left_children":[1,3,5,7,9,11,13,15,17,19,21,23,25,27,29,-1,-1,-1,-1,-1,-1,-1,-1,-1,-1,-1,-1,-1,-1,-1,-1],"loss_changes":[5.480186E2,1.9161731E2,1.9404669E2,4.4452972E1,5.873684E1,5.4032856E1,5.890695E1,2.155957E1,8.122265E0,2.2010315E1,1.080172E1,2.8849684E1,9.749126E0,2.166148E1,1.676416E1,0E0,0E0,0E0,0E0,0E0,0E0,0E0,0E0,0E0,0E0,0E0,0E0,0E0,0E0,0E0,0E0],"parents":[2147483647,0,0,1,1,2,2,3,3,4,4,5,5,6,6,7,7,8,8,9,9,10,10,11,11,12,12,13,13,14,14],"right_children":[2,4,6,8,10,12,14,16,18,20,22,24,26,28,30,-1,-1,-1,-1,-1,-1,-1,-1,-1,-1,-1,-1,-1,-1,-1,-1],"split_conditions":[-6.655205E-2,1E0,1E0,1E0,1E0,1.3458E0,3.571536E-1,-7.727281E-1,-4.9025768E-1,-3.4902248E-1,-7.727281E-1,1E0,1E0,1E0,1.2045648E0,-1.2622997E-2,-8.279821E-3,-2.8082102E-3,6.734813E-3,-3.8157946E-3,1.550362E-3,1.270705E-3,9.409403E-3,-2.5329113E-3,8.037347E-3,4.737266E-3,1.2279877E-2,3.10009E-3,1.222342E-2,1.0417446E-2,1.5302779E-2],"split_indices":[0,4,4,8,8,0,0,0,0,0,0,8,6,8,0,0,0,0,0,0,0,0,0,0,0,0,0,0,0,0,0],"split_type":[0,0,0,0,0,0,0,0,0,0,0,0,0,0,0,0,0,0,0,0,0,0,0,0,0,0,0,0,0,0,0],"sum_hessian":[1.8491511E3,9.7142267E2,8.7772845E2,5.4229016E2,4.291325E2,3.8076608E2,4.9696237E2,5.08429E2,3.3861183E1,3.4579648E2,8.333604E1,3.0737668E2,7.3389404E1,1.6714832E2,3.2981406E2,1.8990573E2,3.1852325E2,1.7518805E1,1.6342377E1,2.3293964E2,1.12856834E2,2.2636024E1,6.0700016E1,2.7991577E2,2.7460913E1,4.3532925E1,2.9856478E1,1.3556029E2,3.1588026E1,2.112765E2,1.1853755E2],"tree_param":{"num_deleted":"0","num_feature":"21","num_nodes":"31","size_leaf_vector":"1"}},{"base_weights":[-1.1493743E-3,-7.5808406E-1,6.917386E-1,-1.0676078E0,-3.453566E-1,3.5189706E-1,1.2196945E0,-1.1562526E0,-4.5898986E-1,-5.1660097E-1,5.2420926E-1,-3.1583825E-1,4.901025E-1,8.0443525E-1,1.4096371E0,-1.2939298E-2,-8.226576E-3,-1.5289264E-3,-7.561705E-3,-7.4751023E-3,-9.219387E-4,5.798764E-4,1.09264385E-2,-6.501606E-4,-8.025289E-3,1.3701767E-3,6.801533E-3,1.03698755E-2,3.9610155E-3,1.2109834E-2,1.705466E-2],"categories":[],"categories_nodes":[],"categories_segments":[],"categories_sizes":[],"default_left":[0,0,0,0,0,0,0,0,0,0,0,0,0,0,0,0,0,0,0,0,0,0,0,0,0,0,0,0,0,0,0],"id":4,"left_children":[1,3,5,7,9,11,13,15,17,19,21,23,25,27,29,-1,-1,-1,-1,-1,-1,-1,-1,-1,-1,-1,-1,-1,-1,-1,-1],"loss_changes":[9.722632E2,1.1281067E2,1.7322305E2,2.6757446E1,5.7028156E1,5.462393E1,2.8729553E1,1.9182312E1,5.884639E0,3.1187897E1,1.6687794E1,1.23776045E1,3.274798E1,1.1094276E1,1.3123657E1,0E0,0E0,0E0,0E0,0E0,0E0,0E0,0E0,0E0,0E0,0E0,0E0,0E0,0E0,0E0,0E0],"parents":[2147483647,0,0,1,1,2,2,3,3,4,4,5,5,6,6,7,7,8,8,9,9,10,10,11,11,12,12,13,13,14,14],"right_children":[2,4,6,8,10,12,14,16,18,20,22,24,26,28,30,-1,-1,-1,-1,-1,-1,-1,-1,-1,-1,-1,-1,-1,-1,-1,-1],"split_conditions":[1E0,-2.0778726E-1,3.571536E-1,1.6779338E-1,2.705405E-1,-7.727281E-1,1E0,1E0,5E0,1E0,1E0,6E0,1E0,6E0,1.6779338E-1,-1.2939298E-2,-8.226576E-3,-1.5289264E-3,-7.561705E-3,-7.4751023E-3,-9.219387E-4,5.798764E-4,1.09264385E-2,-6.501606E-4,-8.025289E-3,1.3701767E-3,6.801533E-3,1.03698755E-2,3.9610155E-3,1.2109834E-2,1.705466E-2],"split_indices":[3,0,0,2,2,0,4,4,20,4,4,20,4,20,2,0,0,0,0,0,0,0,0,0,0,0,0,0,0,0,0],"split_type":[0,0,0,0,0,0,0,0,0,0,0,0,0,0,0,0,0,0,0,0,0,0,0,0,0,0,0,0,0,0,0],"sum_hessian":[1.851798E3,8.849519E2,9.66846E2,5.0479544E2,3.801565E2,5.8922955E2,3.776165E2,4.3983408E2,6.496135E1,3.1794852E2,6.2207966E1,1.0082267E2,4.8840686E2,1.2015799E2,2.574585E2,3.093034E2,1.3053069E2,3.274665E1,3.22147E1,2.0542213E2,1.12526375E2,3.4782166E1,2.74258E1,6.728175E1,3.3540916E1,1.7150261E2,3.1690427E2,7.557648E1,4.4581516E1,1.5707425E2,1.0038426E2],"tree_param":{"num_deleted":"0","num_feature":"21","num_nodes":"31","size_leaf_vector":"1"}},{"base_weights":[-2.1078119E-2,-8.158952E-1,5.7389385E-1,-1.1298567E0,-2.5649697E-1,-3.1171432E-1,7.757783E-1,-1.1712238E0,5.767716E-1,-7.813597E-1,2.4081802E-1,-7.346988E-1,3.219367E-1,4.6281087E-1,1.2730099E0,-1.31017305E-2,-7.874133E-3,-1.5912697E-3,1.0376779E-2,-1.2059558E-2,-5.8882767E-3,1.4946564E-3,8.286308E-3,-1.16409855E-2,-5.3598722E-3,-2.1331904E-3,1.0010715E-2,-2.3560864E-3,6.387872E-3,1.0010805E-2,1.5463928E-2],"categories":[],"categories_nodes":[],"categories_segments":[],"categories_sizes":[],"default_left":[0,0,0,0,0,0,0,0,0,0,0,0,0,0,0,0,0,0,0,0,0,0,0,0,0,0,0,0,0,0,0],"id":5,"left_children":[1,3,5,7,9,11,13,15,17,19,21,23,25,27,29,-1,-1,-1,-1,-1,-1,-1,-1,-1,-1,-1,-1,-1,-1,-1,-1],"loss_changes":[8.819573E2,1.3993439E2,1.9094379E2,3.6758057E1,7.5443825E1,5.349928E1,1.3462659E2,2.5597778E1,4.494889E0,1.0776062E1,7.8666983E0,9.570602E0,2.9384123E1,6.588369E1,2.336139E1,0E0,0E0,0E0,0E0,0E0,0E0,0E0,0E0,0E0,0E0,0E0,0E0,0E0,0E0,0E0,0E0],"parents":[2147483647,0,0,1,1,2,2,3,3,4,4,5,5,6,6,7,7,8,8,9,9,10,10,11,11,12,12,13,13,14,14],"right_children":[2,4,6,8,10,12,14,16,18,20,22,24,26,28,30,-1,-1,-1,-1,-1,-1,-1,-1,-1,-1,-1,-1,-1,-1,-1,-1],"split_conditions":[2E0,9E0,6E0,1E0,-3.4902248E-1,4.983888E-1,3.571536E-1,7.468316E-2,-2.0778726E-1,1E0,1E0,3E0,3E0,-7.727281E-1,3E0,-1.31017305E-2,-7.874133E-3,-1.5912697E-3,1.0376779E-2,-1.2059558E-2,-5.8882767E-3,1.4946564E-3,8.286308E-3,-1.16409855E-2,-5.3598722E-3,-2.1331904E-3,1.0010715E-2,-2.3560864E-3,6.387872E-3,1.0010805E-2,1.5463928E-2],"split_indices":[15,18,18,8,0,0,0,0,0,15,8,18,15,0,15,0,0,0,0,0,0,0,0,0,0,0,0,0,0,0,0],"split_type":[0,0,0,0,0,0,0,0,0,0,0,0,0,0,0,0,0,0,0,0,0,0,0,0,0,0,0,0,0,0,0],"sum_hessian":[1.8630315E3,7.9740924E2,1.0656223E3,5.1009775E2,2.8731146E2,1.9772342E2,8.6789886E2,4.9833237E2,1.1765381E1,1.3950633E2,1.4780513E2,1.1847662E2,7.9246796E1,5.338279E2,3.34071E2,3.641038E2,1.3422858E2,4.783168E0,6.9822135E0,4.1881092E1,9.762523E1,1.2900989E2,1.8795242E1,3.594471E1,8.2531906E1,4.4701496E1,3.4545303E1,1.0736721E2,4.2646066E2,1.6981783E2,1.6425319E2],"tree_param":{"num_deleted":"0","num_feature":"21","num_nodes":"31","size_leaf_vector":"1"}},{"base_weights":[-6.9831735E-3,-5.1196456E-1,4.9560857E-1,-1.7947921E-1,-8.154984E-1,7.15473E-1,9.000744E-2,-1.3084741E0,-1.2477805E-1,-3.700484E-1,-9.0299237E-1,9.162952E-1,4.6611694E-1,5.1935405E-1,-2.833694E-2,-3.54064E-3,-1.4765683E-2,-1.7514969E-3,7.597673E-3,-1.0890833E-3,-5.6044953E-3,-1.0574716E-2,-7.231079E-3,-1.1946768E-2,9.495037E-3,3.9130775E-3,1.6845817E-2,1.7095165E-3,5.7837856E-3,-2.6393386E-3,1.667921E-3],"categories":[],"categories_nodes":[],"categories_segments":[],"categories_sizes":[],"default_left":[0,0,0,0,0,0,0,0,0,0,0,0,0,0,0,0,0,0,0,0,0,0,0,0,0,0,0,0,0,0,0],"id":6,"left_children":[1,3,5,7,9,11,13,15,17,19,21,23,25,27,29,-1,-1,-1,-1,-1,-1,-1,-1,-1,-1,-1,-1,-1,-1,-1,-1],"loss_changes":[4.6810358E2,9.270033E1,8.236981E1,2.703108E1,1.8399048E1,2.9583649E1,1.6583355E1,2.7249146E0,1.889553E1,3.9467049E0,1.0379883E1,2.433258E1,2.3895454E1,1.3511486E0,1.1839163E1,0E0,0E0,0E0,0E0,0E0,0E0,0E0,0E0,0E0,0E0,0E0,0E0,0E0,0E0,0E0,0E0],"parents":[2147483647,0,0,1,1,2,2,3,3,4,4,5,5,6,6,7,7,8,8,9,9,10,10,11,11,12,12,13,13,14,14],"right_children":[2,4,6,8,10,12,14,16,18,20,22,24,26,28,30,-1,-1,-1,-1,-1,-1,-1,-1,-1,-1,-1,-1,-1,-1,-1,-1],"split_conditions":[1E0,6E0,5E0,1E0,1E0,5E0,1E0,2E0,1E0,7E0,1E0,1E0,1E0,4E0,1E0,-3.54064E-3,-1.4765683E-2,-1.7514969E-3,7.597673E-3,-1.0890833E-3,-5.6044953E-3,-1.0574716E-2,-7.231079E-3,-1.1946768E-2,9.495037E-3,3.9130775E-3,1.6845817E-2,1.7095165E-3,5.7837856E-3,-2.6393386E-3,1.667921E-3],"split_indices":[4,20,19,5,9,20,9,20,7,20,17,5,7,20,17,0,0,0,0,0,0,0,0,0,0,0,0,0,0,0,0],"split_type":[0,0,0,0,0,0,0,0,0,0,0,0,0,0,0,0,0,0,0,0,0,0,0,0,0,0,0,0,0,0,0],"sum_hessian":[1.8423839E3,9.1899786E2,9.2338605E2,4.3934207E2,4.7965582E2,5.983008E2,3.2508524E2,1.9243744E1,4.2009833E2,7.960407E1,4.0005173E2,3.299204E2,2.6838037E2,6.9511826E1,2.5557341E2,3.3469102E0,1.5896834E1,3.9822296E2,2.1875362E1,3.422946E1,4.537461E1,2.1259933E2,1.8745241E2,4.5680413E0,3.253524E2,2.541007E2,1.4279681E1,1.063473E1,5.8877094E1,1.1562105E2,1.3995236E2],"tree_param":{"num_deleted":"0","num_feature":"21","num_nodes":"31","size_leaf_vector":"1"}},{"base_weights":[3.5532363E-2,-7.0449E-1,7.0525074E-1,-1.1483681E0,-8.843973E-2,-6.539243E-4,9.886141E-1,-1.3411468E0,-7.9498357E-1,-5.8342606E-1,3.085505E-1,-4.219363E-1,3.266339E-1,7.0694005E-1,1.2726465E0,-1.5139407E-2,-1.2228438E-2,-1.2411149E-2,-5.4227253E-3,-8.69723E-3,-1.9825804E-4,2.790859E-4,7.911637E-3,-8.242939E-3,-1.2343167E-4,-1.4322929E-3,4.5618354E-3,-1.0281491E-2,7.410051E-3,3.0438842E-3,1.3286656E-2],"categories":[],"categories_nodes":[],"categories_segments":[],"categories_sizes":[],"default_left":[0,0,0,0,0,0,0,0,0,0,0,0,0,0,0,0,0,0,0,0,0,0,0,0,0,0,0,0,0,0,0],"id":7,"left_children":[1,3,5,7,9,11,13,15,17,19,21,23,25,27,29,-1,-1,-1,-1,-1,-1,-1,-1,-1,-1,-1,-1,-1,-1,-1,-1],"loss_changes":[9.28926E2,2.4339258E2,1.9680182E2,3.4185974E1,7.367013E1,3.9132744E1,5.5267822E1,4.963196E0,2.0195992E1,2.689635E1,2.817564E1,2.0439995E1,9.788078E0,2.172908E1,1.8488464E1,0E0,0E0,0E0,0E0,0E0,0E0,0E0,0E0,0E0,0E0,0E0,0E0,0E0,0E0,0E0,0E0],"parents":[2147483647,0,0,1,1,2,2,3,3,4,4,5,5,6,6,7,7,8,8,9,9,10,10,11,11,12,12,13,13,14,14],"right_children":[2,4,6,8,10,12,14,16,18,20,22,24,26,28,30,-1,-1,-1,-1,-1,-1,-1,-1,-1,-1,-1,-1,-1,-1,-1,-1],"split_conditions":[1E0,2E0,2E0,8E0,7E0,9E0,3E0,1E0,1E0,3E0,3E0,1E0,1E0,3E0,5E0,-1.5139407E-2,-1.2228438E-2,-1.2411149E-2,-5.4227253E-3,-8.69723E-3,-1.9825804E-4,2.790859E-4,7.911637E-3,-8.242939E-3,-1.2343167E-4,-1.4322929E-3,4.5618354E-3,-1.0281491E-2,7.410051E-3,3.0438842E-3,1.3286656E-2],"split_indices":[3,15,15,18,18,18,15,15,15,15,15,4,15,18,18,0,0,0,0,0,0,0,0,0,0,0,0,0,0,0,0],"split_type":[0,0,0,0,0,0,0,0,0,0,0,0,0,0,0,0,0,0,0,0,0,0,0,0,0,0,0,0,0,0,0],"sum_hessian":[1.8723188E3,8.894483E2,9.8287054E2,5.1646185E2,3.7298648E2,2.8181662E2,7.010539E2,3.323583E2,1.8410355E2,1.6579533E2,2.0719115E2,1.2308866E2,1.5872797E2,3.5374008E2,3.473138E2,1.3027742E2,2.0208089E2,6.516002E1,1.1894353E2,1.0958522E2,5.621011E1,1.3167773E2,7.5513405E1,6.158203E1,6.1506634E1,3.428267E1,1.244453E2,6.249362E0,3.4749072E2,1.9346922E1,3.279669E2],"tree_param":{"num_deleted":"0","num_feature":"21","num_nodes":"31","size_leaf_vector":"1"}},{"base_weights":[-1.6551144E-2,-8.063244E-1,5.860687E-1,-9.7512686E-1,-2.1798964E-1,2.2991712E-1,1.0761849E0,-1.334057E0,-7.9079896E-1,-3.552271E-1,3.2219362E-1,-2.2233886E-1,5.221501E-1,2.5594926E-1,1.2879449E0,-1.4466279E-2,-1.1624869E-2,-1.0149749E-2,-5.803302E-3,-4.1448665E-3,7.438473E-3,1.034258E-2,1.4364189E-3,-7.335921E-3,8.856417E-5,3.589802E-3,8.309751E-3,4.458623E-3,-9.27682E-4,9.727793E-3,1.4606774E-2],"categories":[],"categories_nodes":[],"categories_segments":[],"categories_sizes":[],"default_left":[0,0,0,0,0,0,0,0,0,0,0,0,0,0,0,0,0,0,0,0,0,0,0,0,0,0,0,0,0,0,0],"id":8,"left_children":[1,3,5,7,9,11,13,15,17,19,21,23,25,27,29,-1,-1,-1,-1,-1,-1,-1,-1,-1,-1,-1,-1,-1,-1,-1,-1],"loss_changes":[8.817125E2,7.941461E1,1.8317914E2,4.0146057E1,1.3461761E1,8.071695E1,7.643677E1,2.3711548E0,1.8939606E1,9.690071E0,4.5555377E0,2.8384552E1,1.838504E1,6.1299815E0,1.7688843E1,0E0,0E0,0E0,0E0,0E0,0E0,0E0,0E0,0E0,0E0,0E0,0E0,0E0,0E0,0E0,0E0],"parents":[2147483647,0,0,1,1,2,2,3,3,4,4,5,5,6,6,7,7,8,8,9,9,10,10,11,11,12,12,13,13,14,14],"right_children":[2,4,6,8,10,12,14,16,18,20,22,24,26,28,30,-1,-1,-1,-1,-1,-1,-1,-1,-1,-1,-1,-1,-1,-1,-1,-1],"split_conditions":[2E0,2.1591838E-1,3E0,1E0,1.2045648E0,-2.0778726E-1,-4.9025768E-1,1E0,-4.9025768E-1,2.705405E-1,1.3458E0,-7.727281E-1,7.8085923E-1,2.42823E0,2.1591838E-1,-1.4466279E-2,-1.1624869E-2,-1.0149749E-2,-5.803302E-3,-4.1448665E-3,7.438473E-3,1.034258E-2,1.4364189E-3,-7.335921E-3,8.856417E-5,3.589802E-3,8.309751E-3,4.458623E-3,-9.27682E-4,9.727793E-3,1.4606774E-2],"split_indices":[15,0,15,15,0,0,0,17,0,2,0,0,0,2,0,0,0,0,0,0,0,0,0,0,0,0,0,0,0,0,0],"split_type":[0,0,0,0,0,0,0,0,0,0,0,0,0,0,0,0,0,0,0,0,0,0,0,0,0,0,0,0,0,0,0],"sum_hessian":[1.850605E3,8.0078503E2,1.04982E3,6.217405E2,1.790445E2,6.088544E2,4.4096558E2,2.088407E2,4.128998E2,1.4304521E2,3.599928E1,2.3908644E2,3.697679E2,9.093701E1,3.5002856E2,1.21614746E2,8.722595E1,1.9808827E2,2.1481154E2,1.3631813E2,6.72708E0,6.2563744E0,2.9742905E1,7.377381E1,1.6531262E2,2.4335301E2,1.26414894E2,5.8693634E1,3.224338E1,1.2626981E2,2.2375876E2],"tree_param":{"num_deleted":"0","num_feature":"21","num_nodes":"31","size_leaf_vector":"1"}},{"base_weights":[-8.940395E-5,-7.558146E-1,6.738954E-1,-1.1809741E0,-1.6396996E-1,-1.2363088E-1,9.728672E-1,-1.3218867E0,-7.274754E-1,-5.7635003E-1,1.9346859E-1,-7.108713E-1,8.898883E-2,6.7111874E-1,1.324662E0,-1.4220396E-2,-9.43089E-3,-9.202133E-3,-2.3287307E-3,-8.099416E-3,-1.1930224E-3,-3.5300467E-3,7.0640785E-3,-1.0470459E-2,-4.0029604E-3,-2.8243405E-3,3.478839E-3,-1.1774838E-3,8.221893E-3,4.723089E-3,1.4074413E-2],"categories":[],"categories_nodes":[],"categories_segments":[],"categories_sizes":[],"default_left":[0,0,0,0,0,0,0,0,0,0,0,0,0,0,0,0,0,0,0,0,0,0,0,0,0,0,0,0,0,0,0],"id":9,"left_children":[1,3,5,7,9,11,13,15,17,19,21,23,25,27,29,-1,-1,-1,-1,-1,-1,-1,-1,-1,-1,-1,-1,-1,-1,-1,-1],"loss_changes":[9.45845E2,2.2008264E2,2.3416406E2,3.158313E1,5.422583E1,3.359075E1,7.490973E1,1.3353149E1,1.1506813E1,1.812909E1,5.558533E1,7.045006E0,1.9140991E1,4.6144806E1,2.2524414E1,0E0,0E0,0E0,0E0,0E0,0E0,0E0,0E0,0E0,0E0,0E0,0E0,0E0,0E0,0E0,0E0],"parents":[2147483647,0,0,1,1,2,2,3,3,4,4,5,5,6,6,7,7,8,8,9,9,10,10,11,11,12,12,13,13,14,14],"right_children":[2,4,6,8,10,12,14,16,18,20,22,24,26,28,30,-1,-1,-1,-1,-1,-1,-1,-1,-1,-1,-1,-1,-1,-1,-1,-1],"split_conditions":[1E0,2E0,2E0,9E0,-2.0778726E-1,-4.9025768E-1,3.571536E-1,7.468316E-2,-2.0778726E-1,3E0,7E0,1E0,1E0,7E0,5E0,-1.4220396E-2,-9.43089E-3,-9.202133E-3,-2.3287307E-3,-8.099416E-3,-1.1930224E-3,-3.5300467E-3,7.0640785E-3,-1.0470459E-2,-4.0029604E-3,-2.8243405E-3,3.478839E-3,-1.1774838E-3,8.221893E-3,4.723089E-3,1.4074413E-2],"split_indices":[3,15,15,18,0,0,0,0,0,15,18,4,4,18,18,0,0,0,0,0,0,0,0,0,0,0,0,0,0,0,0],"split_type":[0,0,0,0,0,0,0,0,0,0,0,0,0,0,0,0,0,0,0,0,0,0,0,0,0,0,0,0,0,0,0],"sum_hessian":[1.8549746E3,8.7440314E2,9.805715E2,5.082788E2,3.661243E2,2.6752307E2,7.130484E2,3.8632413E2,1.2195469E2,1.6971274E2,1.9641158E2,7.0490364E1,1.9703271E2,3.8539096E2,3.2765744E2,3.0336197E2,8.2962135E1,8.7138016E1,3.4816673E1,1.1180067E2,5.7912075E1,9.524821E1,1.0116336E2,3.2711388E1,3.7778973E1,8.0891335E1,1.1614138E2,6.1977013E1,3.2341394E2,2.9598331E1,2.980591E2],"tree_param":{"num_deleted":"0","num_feature":"21","num_nodes":"31","size_leaf_vector":"1"}},{"base_weights":[1.2058697E-2,-7.2980756E-1,6.6037965E-1,-1.1453959E0,-1.5361802E-1,-6.6675454E-2,9.4798625E-1,-1.3158946E0,-8.227213E-1,-6.2660336E-1,2.2459942E-1,-2.9951754E-1,5.53289E-1,6.659905E-1,1.2755865E0,-1.4030604E-2,-1.0186993E-2,-1.3169646E-2,-5.560378E-3,-8.903799E-3,-1.7981195E-4,-4.6192408E-3,6.670976E-3,-7.0096366E-3,-9.459349E-5,6.662991E-4,9.995186E-3,2.0265947E-3,8.315416E-3,1.0036035E-2,1.5293779E-2],"categories":[],"categories_nodes":[],"categories_segments":[],"categories_sizes":[],"default_left":[0,0,0,0,0,0,0,0,0,0,0,0,0,0,0,0,0,0,0,0,0,0,0,0,0,0,0,0,0,0,0],"id":10,"left_children":[1,3,5,7,9,11,13,15,17,19,21,23,25,27,29,-1,-1,-1,-1,-1,-1,-1,-1,-1,-1,-1,-1,-1,-1,-1,-1],"loss_changes":[8.8643164E2,2.0563998E2,2.057203E2,2.6380676E1,6.477738E1,4.0542953E1,6.426099E1,6.9884033E0,2.236647E1,2.580035E1,6.152353E1,2.374648E1,1.6594177E1,2.9044876E1,2.089502E1,0E0,0E0,0E0,0E0,0E0,0E0,0E0,0E0,0E0,0E0,0E0,0E0,0E0,0E0,0E0,0E0],"parents":[2147483647,0,0,1,1,2,2,3,3,4,4,5,5,6,6,7,7,8,8,9,9,10,10,11,11,12,12,13,13,14,14],"right_children":[2,4,6,8,10,12,14,16,18,20,22,24,26,28,30,-1,-1,-1,-1,-1,-1,-1,-1,-1,-1,-1,-1,-1,-1,-1,-1],"split_conditions":[1E0,2E0,2E0,8E0,7E0,3.571536E-1,3.571536E-1,7.468316E-2,1E0,3E0,-3.4902248E-1,9E0,9E0,8E0,3E0,-1.4030604E-2,-1.0186993E-2,-1.3169646E-2,-5.560378E-3,-8.903799E-3,-1.7981195E-4,-4.6192408E-3,6.670976E-3,-7.0096366E-3,-9.459349E-5,6.662991E-4,9.995186E-3,2.0265947E-3,8.315416E-3,1.0036035E-2,1.5293779E-2],"split_indices":[3,15,15,18,18,0,0,0,15,15,0,18,18,18,15,0,0,0,0,0,0,0,0,0,0,0,0,0,0,0,0],"split_type":[0,0,0,0,0,0,0,0,0,0,0,0,0,0,0,0,0,0,0,0,0,0,0,0,0,0,0,0,0,0,0],"sum_hessian":[1.841016E3,8.5850867E2,9.825073E2,4.981907E2,3.6031796E2,2.787102E2,7.037972E2,3.2394336E2,1.7424734E2,1.5980933E2,2.0050862E2,2.0298961E2,7.572059E1,3.7985434E2,3.239428E2,2.4760205E2,7.6341324E1,5.9688526E1,1.14558815E2,1.1116677E2,4.864256E1,7.856827E1,1.2194035E2,8.4551735E1,1.1843787E2,3.676926E1,3.8951332E1,1.0058089E2,2.7927347E2,1.587588E2,1.6518399E2],"tree_param":{"num_deleted":"0","num_feature":"21","num_nodes":"31","size_leaf_vector":"1"}},{"base_weights":[-2.0438822E-2,-7.426448E-1,6.32034E-1,-8.1734914E-1,5.520678E-1,4.5722228E-1,1.0943885E0,-9.158953E-1,-1.24754466E-1,8.900137E-1,2.8794292E-1,3.4460708E-1,9.740375E-1,1.1433213E0,-2.1678126E-1,-7.8030503E-3,-1.0567609E-2,-3.0769645E-3,2.0971955E-3,1.1521591E-2,2.3216738E-3,4.3822224E-3,-8.197701E-4,5.300445E-3,6.2752096E-4,8.498124E-3,1.1679573E-2,9.842479E-3,1.4356198E-2,-7.6449136E-3,4.408271E-3],"categories":[],"categories_nodes":[],"categories_segments":[],"categories_sizes":[],"default_left":[0,0,0,0,0,0,0,0,0,0,0,0,0,0,0,0,0,0,0,0,0,0,0,0,0,0,0,0,0,0,0],"id":11,"left_children":[1,3,5,7,9,11,13,15,17,19,21,23,25,27,29,-1,-1,-1,-1,-1,-1,-1,-1,-1,-1,-1,-1,-1,-1,-1,-1],"loss_changes":[8.775396E2,8.594162E1,7.857776E1,5.694995E1,4.10093E0,4.1084778E1,1.742395E1,1.3152344E1,6.507824E0,3.3430347E0,1.6413054E0,3.0589302E1,2.061615E0,1.0594299E1,4.108849E0,0E0,0E0,0E0,0E0,0E0,0E0,0E0,0E0,0E0,0E0,0E0,0E0,0E0,0E0,0E0,0E0],"parents":[2147483647,0,0,1,1,2,2,3,3,4,4,5,5,6,6,7,7,8,8,9,9,10,10,11,11,12,12,13,13,14,14],"right_children":[2,4,6,8,10,12,14,16,18,20,22,24,26,28,30,-1,-1,-1,-1,-1,-1,-1,-1,-1,-1,-1,-1,-1,-1,-1,-1],"split_conditions":[1E0,1E0,2.705405E-1,2.705405E-1,1E0,1E0,1E0,5E0,1E0,5E0,5.2206803E-2,5E0,-4.486893E-1,1E0,-7.344134E-2,-7.8030503E-3,-1.0567609E-2,-3.0769645E-3,2.0971955E-3,1.1521591E-2,2.3216738E-3,4.3822224E-3,-8.197701E-4,5.300445E-3,6.2752096E-4,8.498124E-3,1.1679573E-2,9.842479E-3,1.4356198E-2,-7.6449136E-3,4.408271E-3],"split_indices":[3,8,2,2,6,8,12,19,17,19,1,19,2,8,1,0,0,0,0,0,0,0,0,0,0,0,0,0,0,0,0],"split_type":[0,0,0,0,0,0,0,0,0,0,0,0,0,0,0,0,0,0,0,0,0,0,0,0,0,0,0,0,0,0,0],"sum_hessian":[1.8602765E3,8.8288965E2,9.7738684E2,8.350749E2,4.7814766E1,7.10676E2,2.6671075E2,7.30774E2,1.0430092E2,1.9936493E1,2.7878273E1,5.8489325E2,1.2578278E2,2.5723865E2,9.472135E0,3.7569144E2,3.5508252E2,6.747515E1,3.6825764E1,1.3718424E1,6.21807E0,1.9693274E1,8.184999E0,3.522567E2,2.3263655E2,7.9949425E1,4.583335E1,1.6941023E2,8.782841E1,5.079215E0,4.3929195E0],"tree_param":{"num_deleted":"0","num_feature":"21","num_nodes":"31","size_leaf_vector":"1"}},{"base_weights":[-5.7873527E-5,-7.1208197E-1,6.26439E-1,-1.139861E0,-1.0640449E-1,-1.09155186E-1,9.3199635E-1,-1.4253827E0,-9.71968E-1,-5.682314E-1,2.72846E-1,-4.4864836E-1,1.5974106E-1,6.992338E-1,1.1768719E0,-1.5227315E-2,-1.3014506E-2,-1.165599E-2,-6.192959E-3,-8.615221E-3,1.281954E-3,-1.1810065E-2,3.1464617E-3,5.952457E-3,-4.9607605E-3,-3.5182186E-3,2.8224133E-3,2.4225307E-3,9.092467E-3,8.5172144E-4,1.2155788E-2],"categories":[],"categories_nodes":[],"categories_segments":[],"categories_sizes":[],"default_left":[0,0,0,0,0,0,0,0,0,0,0,0,0,0,0,0,0,0,0,0,0,0,0,0,0,0,0,0,0,0,0],"id":12,"left_children":[1,3,5,7,9,11,13,15,17,19,21,23,25,27,29,-1,-1,-1,-1,-1,-1,-1,-1,-1,-1,-1,-1,-1,-1,-1,-1],"loss_changes":[8.265565E2,2.2458414E2,2.2164551E2,2.2975037E1,6.322428E1,2.656063E1,3.8875793E1,2.6254272E-1,2.1345428E1,3.3341423E1,1.2428492E1,6.6578007E0,1.0292442E1,3.428578E1,1.4177032E1,0E0,0E0,0E0,0E0,0E0,0E0,0E0,0E0,0E0,0E0,0E0,0E0,0E0,0E0,0E0,0E0],"parents":[2147483647,0,0,1,1,2,2,3,3,4,4,5,5,6,6,7,7,8,8,9,9,10,10,11,11,12,12,13,13,14,14],"right_children":[2,4,6,8,10,12,14,16,18,20,22,24,26,28,30,-1,-1,-1,-1,-1,-1,-1,-1,-1,-1,-1,-1,-1,-1,-1,-1],"split_conditions":[1E0,2E0,2E0,1E0,7E0,9E0,3E0,7E0,8E0,3E0,1E0,2E0,1E0,8E0,4E0,-1.5227315E-2,-1.3014506E-2,-1.165599E-2,-6.192959E-3,-8.615221E-3,1.281954E-3,-1.1810065E-2,3.1464617E-3,5.952457E-3,-4.9607605E-3,-3.5182186E-3,2.8224133E-3,2.4225307E-3,9.092467E-3,8.5172144E-4,1.2155788E-2],"split_indices":[3,15,15,15,18,18,15,18,18,15,5,20,15,18,18,0,0,0,0,0,0,0,0,0,0,0,0,0,0,0,0],"split_type":[0,0,0,0,0,0,0,0,0,0,0,0,0,0,0,0,0,0,0,0,0,0,0,0,0,0,0,0,0,0,0],"sum_hessian":[1.8509297E3,8.6626666E2,9.84663E2,5.071757E2,3.5909097E2,2.8916772E2,6.954953E2,1.8502652E2,3.2214917E2,1.6169315E2,1.9739783E2,1.2751104E2,1.616567E2,3.5854327E2,3.3695206E2,9.730591E1,8.772062E1,2.0647896E2,1.1567019E2,1.13610535E2,4.8082607E1,4.755152E0,1.9264267E2,5.039518E0,1.2247152E2,3.0870216E1,1.3078647E2,1.1357079E2,2.4497247E2,1.1647336E1,3.2530472E2],"tree_param":{"num_deleted":"0","num_feature":"21","num_nodes":"31","size_leaf_vector":"1"}},{"base_weights":[-8.585774E-3,-6.9666666E-1,6.097863E-1,-1.0091221E0,-2.6692328E-1,3.487885E-1,1.121048E0,-1.2239301E0,-6.6910535E-1,-7.5321144E-1,2.463793E-1,-1.2102988E0,4.0222865E-1,7.0701385E-1,1.3158634E0,-1.3015028E-2,-9.694618E-3,-8.61987E-3,-4.009712E-3,-1.0469429E-2,-8.5988524E-4,1.1507602E-3,8.42482E-3,-1.4392931E-2,-7.7322456E-3,-1.0942223E-3,5.5309925E-3,-4.0594852E-5,8.869854E-3,1.1475598E-2,1.5010098E-2],"categories":[],"categories_nodes":[],"categories_segments":[],"categories_sizes":[],"default_left":[0,0,0,0,0,0,0,0,0,0,0,0,0,0,0,0,0,0,0,0,0,0,0,0,0,0,0,0,0,0,0],"id":13,"left_children":[1,3,5,7,9,11,13,15,17,19,21,23,25,27,29,-1,-1,-1,-1,-1,-1,-1,-1,-1,-1,-1,-1,-1,-1,-1,-1],"loss_changes":[7.9109766E2,1.178963E2,1.3027713E2,3.6371216E1,9.300094E1,5.4621964E1,2.5727814E1,4.874176E0,9.964073E0,3.7380142E1,1.4120648E1,1.0672379E0,4.8611877E1,1.3813427E1,5.2446594E0,0E0,0E0,0E0,0E0,0E0,0E0,0E0,0E0,0E0,0E0,0E0,0E0,0E0,0E0,0E0,0E0],"parents":[2147483647,0,0,1,1,2,2,3,3,4,4,5,5,6,6,7,7,8,8,9,9,10,10,11,11,12,12,13,13,14,14],"right_children":[2,4,6,8,10,12,14,16,18,20,22,24,26,28,30,-1,-1,-1,-1,-1,-1,-1,-1,-1,-1,-1,-1,-1,-1,-1,-1],"split_conditions":[1E0,-2.0778726E-1,4.983888E-1,8E0,7E0,4E0,1E0,1E0,1E0,1E0,1.0633296E0,1E0,-6.314929E-1,6E0,1.2045648E0,-1.3015028E-2,-9.694618E-3,-8.61987E-3,-4.009712E-3,-1.0469429E-2,-8.5988524E-4,1.1507602E-3,8.42482E-3,-1.4392931E-2,-7.7322456E-3,-1.0942223E-3,5.5309925E-3,-4.0594852E-5,8.869854E-3,1.1475598E-2,1.5010098E-2],"split_indices":[3,0,0,18,18,18,4,4,4,4,0,4,0,18,0,0,0,0,0,0,0,0,0,0,0,0,0,0,0,0,0],"split_type":[0,0,0,0,0,0,0,0,0,0,0,0,0,0,0,0,0,0,0,0,0,0,0,0,0,0,0,0,0,0,0],"sum_hessian":[1.8572643E3,8.790229E2,9.782414E2,5.0818576E2,3.7083713E2,6.487423E2,3.2949908E2,3.0984158E2,1.9834416E2,1.9018959E2,1.8064755E2,2.0782303E1,6.2796E2,1.0691203E2,2.2258707E2,2.3430186E2,7.553972E1,1.14072E2,8.427216E1,1.3165988E2,5.8529713E1,1.4901675E2,3.1630802E1,1.2132668E1,8.649635E0,1.4306276E2,4.8489728E2,2.179131E1,8.512072E1,1.2036758E2,1.0221948E2],"tree_param":{"num_deleted":"0","num_feature":"21","num_nodes":"31","size_leaf_vector":"1"}},{"base_weights":[9.843402E-3,-5.573409E-1,4.8548332E-1,-1.0659094E0,-1.1578844E-1,-2.349609E-1,8.225164E-1,-1.1782248E0,3.8791988E-3,-3.0048642E-1,6.8806416E-1,-5.9939396E-1,3.7051958E-1,5.8213156E-1,1.2337829E0,-3.3747961E-3,-1.2265943E-2,-2.8095855E-3,1.102399E-2,-5.1515866E-3,7.8081514E-4,3.7520723E-3,1.0713161E-2,-1.0680217E-2,-3.918807E-3,-6.0915044E-3,5.569512E-3,3.2410468E-3,9.381203E-3,1.0171699E-2,1.4794865E-2],"categories":[],"categories_nodes":[],"categories_segments":[],"categories_sizes":[],"default_left":[0,0,0,0,0,0,0,0,0,0,0,0,0,0,0,0,0,0,0,0,0,0,0,0,0,0,0,0,0,0,0],"id":14,"left_children":[1,3,5,7,9,11,13,15,17,19,21,23,25,27,29,-1,-1,-1,-1,-1,-1,-1,-1,-1,-1,-1,-1,-1,-1,-1,-1],"loss_changes":[4.9738852E2,1.8871756E2,2.4367949E2,4.694748E1,6.720365E1,7.0915115E1,6.684378E1,1.3964569E1,1.2236672E1,2.991718E1,9.743507E0,1.9067726E1,2.2437965E1,3.948683E1,1.1864685E1,0E0,0E0,0E0,0E0,0E0,0E0,0E0,0E0,0E0,0E0,0E0,0E0,0E0,0E0,0E0,0E0],"parents":[2147483647,0,0,1,1,2,2,3,3,4,4,5,5,6,6,7,7,8,8,9,9,10,10,11,11,12,12,13,13,14,14],"right_children":[2,4,6,8,10,12,14,16,18,20,22,24,26,28,30,-1,-1,-1,-1,-1,-1,-1,-1,-1,-1,-1,-1,-1,-1,-1,-1],"split_conditions":[-2.0778726E-1,8E0,7E0,1E0,1E0,7.8085923E-1,1E0,2E0,1E0,-4.9025768E-1,1E0,4E0,3E0,4.983888E-1,7.8085923E-1,-3.3747961E-3,-1.2265943E-2,-2.8095855E-3,1.102399E-2,-5.1515866E-3,7.8081514E-4,3.7520723E-3,1.0713161E-2,-1.0680217E-2,-3.918807E-3,-6.0915044E-3,5.569512E-3,3.2410468E-3,9.381203E-3,1.0171699E-2,1.4794865E-2],"split_indices":[0,18,18,16,8,0,16,20,8,0,16,18,18,0,0,0,0,0,0,0,0,0,0,0,0,0,0,0,0,0,0],"split_type":[0,0,0,0,0,0,0,0,0,0,0,0,0,0,0,0,0,0,0,0,0,0,0,0,0,0,0,0,0,0,0],"sum_hessian":[1.8417096E3,8.399391E2,1.00177045E3,3.8969025E2,4.5024887E2,3.1937503E2,6.8239545E2,3.525728E2,3.711744E1,3.6663483E2,8.361402E1,1.9938007E2,1.19994965E2,4.32194E2,2.5020145E2,1.9614578E1,3.3295822E2,3.0065836E1,7.0516024E0,2.3373265E2,1.3290219E2,4.7124382E1,3.648964E1,5.991871E1,1.3946136E2,1.8821804E1,1.0117316E2,2.5168137E2,1.8051262E2,1.3570415E2,1.144973E2],"tree_param":{"num_deleted":"0","num_feature":"21","num_nodes":"31","size_leaf_vector":"1"}},{"base_weights":[-9.1360435E-3,-7.0409536E-1,6.1349064E-1,-7.713945E-1,4.4828987E-1,4.9204838E-1,1.0609043E0,-3.6952588E-1,-8.7498915E-1,-9.4108716E-2,5.8167934E-1,6.5222675E-1,1.8754953E-1,1.0937032E0,2.1574005E-1,-1.3235221E-2,-3.324891E-3,-6.9180448E-3,-1.0620381E-2,-5.068174E-3,2.1655739E-3,4.5378744E-3,1.2793349E-2,6.958945E-3,-3.5145273E-3,6.786787E-4,3.6845019E-3,1.01940585E-2,1.4160425E-2,-1.3414283E-3,5.7587116E-3],"categories":[],"categories_nodes":[],"categories_segments":[],"categories_sizes":[],"default_left":[0,0,0,0,0,0,0,0,0,0,0,0,0,0,0,0,0,0,0,0,0,0,0,0,0,0,0,0,0,0,0],"id":15,"left_children":[1,3,5,7,9,11,13,15,17,19,21,23,25,27,29,-1,-1,-1,-1,-1,-1,-1,-1,-1,-1,-1,-1,-1,-1,-1,-1],"loss_changes":[8.073997E2,6.872977E1,5.295468E1,3.4375153E1,3.620552E0,3.7724274E1,5.5644684E0,5.6566525E0,2.1945526E1,1.4674032E0,2.961357E0,2.2512665E1,5.796438E0,3.374649E0,1.2191933E0,0E0,0E0,0E0,0E0,0E0,0E0,0E0,0E0,0E0,0E0,0E0,0E0,0E0,0E0,0E0,0E0],"parents":[2147483647,0,0,1,1,2,2,3,3,4,4,5,5,6,6,7,7,8,8,9,9,10,10,11,11,12,12,13,13,14,14],"right_children":[2,4,6,8,10,12,14,16,18,20,22,24,26,28,30,-1,-1,-1,-1,-1,-1,-1,-1,-1,-1,-1,-1,-1,-1,-1,-1],"split_conditions":[1E0,1E0,1E0,1E0,1E0,5E0,1E0,1E0,5E0,1E0,1E0,1E0,1E0,1E0,5E0,-1.3235221E-2,-3.324891E-3,-6.9180448E-3,-1.0620381E-2,-5.068174E-3,2.1655739E-3,4.5378744E-3,1.2793349E-2,6.958945E-3,-3.5145273E-3,6.786787E-4,3.6845019E-3,1.01940585E-2,1.4160425E-2,-1.3414283E-3,5.7587116E-3],"split_indices":[3,8,8,9,11,19,12,5,19,6,7,12,6,7,19,0,0,0,0,0,0,0,0,0,0,0,0,0,0,0,0],"split_type":[0,0,0,0,0,0,0,0,0,0,0,0,0,0,0,0,0,0,0,0,0,0,0,0,0,0,0,0,0,0,0],"sum_hessian":[1.8639581E3,8.807536E2,9.8320447E2,8.324682E2,4.8285416E1,7.749565E2,2.0824803E2,1.7155031E2,6.6091785E2,9.588873E0,3.8696545E1,5.0707376E2,2.6788272E2,2.0018526E2,8.062782E0,5.1130304E0,1.6643729E2,3.3628186E2,3.2463602E2,3.8469496E0,5.741923E0,3.4096527E1,4.600014E0,4.8622586E2,2.0847906E1,1.6204855E2,1.0583416E2,1.660697E2,3.4115555E1,4.407867E0,3.6549158E0],"tree_param":{"num_deleted":"0","num_feature":"21","num_nodes":"31","size_leaf_vector":"1"}},{"base_weights":[8.679638E-3,-7.000885E-1,6.3628983E-1,-1.1292934E0,-1.1832385E-1,-5.6383464E-2,9.215797E-1,-1.4096901E-2,-9.6323097E-1,-5.273715E-1,3.909316E-1,-4.2651019E-1,2.35093E-1,6.509029E-1,1.2186757E0,-1.2753465E-2,-7.193604E-3,-7.87431E-3,5.8352074E-4,2.0036844E-3,6.7592035E-3,-5.088327E-3,3.975797E-3,-4.3147537E-3,4.022143E-3,2.4768064E-4,7.959603E-3,4.187673E-3,1.2733988E-2],"categories":[],"categories_nodes":[],"categories_segments":[],"categories_sizes":[],"default_left":[0,0,0,0,0,0,0,0,0,0,0,0,0,0,0,0,0,0,0,0,0,0,0,0,0,0,0,0,0],"id":16,"left_children":[1,3,5,7,9,11,13,-1,15,17,19,21,23,25,27,-1,-1,-1,-1,-1,-1,-1,-1,-1,-1,-1,-1,-1,-1],"loss_changes":[8.06045E2,2.1235748E2,1.899635E2,2.1439148E1,7.569897E1,3.0446981E1,5.3949524E1,0E0,2.2727417E1,3.0724163E1,8.6627445E0,8.633713E0,1.777557E1,3.2527817E1,1.3622437E1,0E0,0E0,0E0,0E0,0E0,0E0,0E0,0E0,0E0,0E0,0E0,0E0,0E0,0E0],"parents":[2147483647,0,0,1,1,2,2,3,3,4,4,5,5,6,6,8,8,9,9,10,10,11,11,12,12,13,13,14,14],"right_children":[2,4,6,8,10,12,14,-1,16,18,20,22,24,26,28,-1,-1,-1,-1,-1,-1,-1,-1,-1,-1,-1,-1,-1,-1],"split_conditions":[1E0,2E0,2E0,1E0,8E0,9E0,3E0,-1.4096901E-2,6E0,3E0,3E0,1E0,1E0,7E0,5E0,-1.2753465E-2,-7.193604E-3,-7.87431E-3,5.8352074E-4,2.0036844E-3,6.7592035E-3,-5.088327E-3,3.975797E-3,-4.3147537E-3,4.022143E-3,2.4768064E-4,7.959603E-3,4.187673E-3,1.2733988E-2],"split_indices":[3,15,15,15,18,18,15,0,18,15,15,16,15,18,18,0,0,0,0,0,0,0,0,0,0,0,0,0,0],"split_type":[0,0,0,0,0,0,0,0,0,0,0,0,0,0,0,0,0,0,0,0,0,0,0,0,0,0,0,0,0],"sum_hessian":[1.8100273E3,8.4999817E2,9.600291E2,4.885917E2,3.6140646E2,2.802922E2,6.797369E2,1.7894835E2,3.0964334E2,2.0040234E2,1.6100412E2,1.2328168E2,1.5701054E2,3.573527E2,3.223842E2,1.3396274E2,1.756806E2,1.3854459E2,6.1857754E1,9.750717E1,6.349695E1,1.12432755E2,1.0848922E1,3.1157219E1,1.25853325E2,6.7436455E1,2.8991626E2,2.1196686E1,3.011875E2],"tree_param":{"num_deleted":"0","num_feature":"21","num_nodes":"29","size_leaf_vector":"1"}},{"base_weights":[-8.40982E-3,-7.540745E-1,5.200084E-1,-1.1635431E0,-2.9733777E-1,-9.14371E-2,7.7040124E-1,-1.2178174E0,2.5960656E-2,-8.597558E-1,3.919692E-2,-4.7820452E-1,5.243499E-1,2.623403E-1,1.070825E0,-1.3088193E-2,-9.110403E-3,4.359459E-3,-4.519431E-3,-1.2852861E-2,-6.322244E-3,-4.7460482E-3,1.9193703E-3,-8.561928E-3,-1.7673807E-3,6.801873E-4,8.825132E-3,-5.602639E-4,6.8490147E-3,8.296802E-3,1.345497E-2],"categories":[],"categories_nodes":[],"categories_segments":[],"categories_sizes":[],"default_left":[0,0,0,0,0,0,0,0,0,0,0,0,0,0,0,0,0,0,0,0,0,0,0,0,0,0,0,0,0,0,0],"id":17,"left_children":[1,3,5,7,9,11,13,15,17,19,21,23,25,27,29,-1,-1,-1,-1,-1,-1,-1,-1,-1,-1,-1,-1,-1,-1,-1,-1],"loss_changes":[7.242249E2,1.4222E2,1.6476581E2,2.595935E1,6.8493286E1,7.489884E1,1.16224E2,9.530762E0,3.8225842E0,1.2301849E1,1.7925058E1,2.1845325E1,1.9780415E1,3.837352E1,3.0633118E1,0E0,0E0,0E0,0E0,0E0,0E0,0E0,0E0,0E0,0E0,0E0,0E0,0E0,0E0,0E0,0E0],"parents":[2147483647,0,0,1,1,2,2,3,3,4,4,5,5,6,6,7,7,8,8,9,9,10,10,11,11,12,12,13,13,14,14],"right_children":[2,4,6,8,10,12,14,16,18,20,22,24,26,28,30,-1,-1,-1,-1,-1,-1,-1,-1,-1,-1,-1,-1,-1,-1,-1,-1],"split_conditions":[2E0,8E0,7E0,1.2045648E0,-4.9025768E-1,3E0,-2.0778726E-1,7.468316E-2,-3.247376E-1,1E0,1E0,-6.655205E-2,2.1591838E-1,3E0,3E0,-1.3088193E-2,-9.110403E-3,4.359459E-3,-4.519431E-3,-1.2852861E-2,-6.322244E-3,-4.7460482E-3,1.9193703E-3,-8.561928E-3,-1.7673807E-3,6.801873E-4,8.825132E-3,-5.602639E-4,6.8490147E-3,8.296802E-3,1.345497E-2],"split_indices":[15,18,18,0,0,15,0,0,1,15,15,0,0,15,15,0,0,0,0,0,0,0,0,0,0,0,0,0,0,0,0],"split_type":[0,0,0,0,0,0,0,0,0,0,0,0,0,0,0,0,0,0,0,0,0,0,0,0,0,0,0,0,0,0,0],"sum_hessian":[1.8360327E3,7.613064E2,1.0747263E3,4.006092E2,3.606972E2,3.1242838E2,7.62298E2,3.8310516E2,1.7504042E1,1.3444968E2,2.2624753E2,1.9203636E2,1.20392E2,2.8395734E2,4.783406E2,2.9294125E2,9.016391E1,9.468757E0,8.035285E0,4.5223545E1,8.9226135E1,5.1362427E1,1.748851E2,8.438795E1,1.07648415E2,5.3464054E1,6.692794E1,1.624394E2,1.2151793E2,2.5685696E2,2.2148364E2],"tree_param":{"num_deleted":"0","num_feature":"21","num_nodes":"31","size_leaf_vector":"1"}},{"base_weights":[-1.4804747E-2,-6.9344103E-1,5.879399E-1,-8.3192444E-1,2.2427751E-1,3.4205353E-1,1.080483E0,-1.0146683E0,-4.4480392E-1,7.973332E-2,8.8246536E-1,-2.1394046E-2,5.607187E-1,7.1151406E-1,1.2246189E0,-1.0448615E-2,2.1501735E-3,-5.1730345E-3,7.7267876E-3,2.1566225E-3,-3.8690153E-3,4.8758183E-3,1.2209118E-2,2.7127436E-3,-3.1646215E-3,8.093998E-3,4.1062636E-3,1.0448917E-2,5.077161E-3,5.012977E-3,1.2483937E-2],"categories":[],"categories_nodes":[],"categories_segments":[],"categories_sizes":[],"default_left":[0,0,0,0,0,0,0,0,0,0,0,0,0,0,0,0,0,0,0,0,0,0,0,0,0,0,0,0,0,0,0],"id":18,"left_children":[1,3,5,7,9,11,13,15,17,19,21,23,25,27,29,-1,-1,-1,-1,-1,-1,-1,-1,-1,-1,-1,-1,-1,-1,-1,-1],"loss_changes":[7.598865E2,1.11241E2,1.18787994E2,5.3276733E1,1.0904654E1,5.2283714E1,1.6527313E1,1.9351074E1,2.2054062E1,6.152779E0,2.1675873E0,2.1505177E1,1.4996857E1,5.875553E0,3.3959656E0,0E0,0E0,0E0,0E0,0E0,0E0,0E0,0E0,0E0,0E0,0E0,0E0,0E0,0E0,0E0,0E0],"parents":[2147483647,0,0,1,1,2,2,3,3,4,4,5,5,6,6,7,7,8,8,9,9,10,10,11,11,12,12,13,13,14,14],"right_children":[2,4,6,8,10,12,14,16,18,20,22,24,26,28,30,-1,-1,-1,-1,-1,-1,-1,-1,-1,-1,-1,-1,-1,-1,-1,-1],"split_conditions":[1E0,1E0,1E0,1E0,1E0,1E0,1E0,1E0,1E0,5E0,4E0,6E0,5E0,3E0,1E0,-1.0448615E-2,2.1501735E-3,-5.1730345E-3,7.7267876E-3,2.1566225E-3,-3.8690153E-3,4.8758183E-3,1.2209118E-2,2.7127436E-3,-3.1646215E-3,8.093998E-3,4.1062636E-3,1.0448917E-2,5.077161E-3,5.012977E-3,1.2483937E-2],"split_indices":[3,16,16,4,8,4,4,8,8,19,19,20,20,20,13,0,0,0,0,0,0,0,0,0,0,0,0,0,0,0,0],"split_type":[0,0,0,0,0,0,0,0,0,0,0,0,0,0,0,0,0,0,0,0,0,0,0,0,0,0,0,0,0,0,0],"sum_hessian":[1.8557147E3,8.7283295E2,9.828818E2,7.584731E2,1.1435984E2,6.567265E2,3.2615527E2,5.1414496E2,2.4432812E2,9.468686E1,1.9672977E1,2.4703201E2,4.096945E2,9.328762E1,2.3286766E2,5.019701E2,1.2174863E1,2.3113919E2,1.3188935E1,7.37435E1,2.0943361E1,1.0205882E1,9.467095E0,1.2406081E2,1.2297121E2,1.5254953E2,2.5714496E2,3.3826424E1,5.94612E1,8.113355E0,2.247543E2],"tree_param":{"num_deleted":"0","num_feature":"21","num_nodes":"31","size_leaf_vector":"1"}},{"base_weights":[-1.1718394E-3,-7.055221E-1,5.2472883E-1,-1.002464E0,-2.4591911E-1,-7.683253E-2,7.5172067E-1,-1.1653757E0,-5.135342E-1,-4.3377924E-1,5.9396243E-1,-4.668563E-1,2.8412443E-1,4.2254227E-1,1.1577442E0,-1.3674593E-2,-1.0321222E-2,-6.085601E-3,-4.5874258E-4,-8.533111E-3,-2.4203926E-3,3.5281428E-3,1.1039769E-2,-6.14946E-3,8.793916E-4,6.827449E-4,5.3195762E-3,6.8471103E-4,6.8016993E-3,8.635197E-3,1.2994801E-2],"categories":[],"categories_nodes":[],"categories_segments":[],"categories_sizes":[],"default_left":[0,0,0,0,0,0,0,0,0,0,0,0,0,0,0,0,0,0,0,0,0,0,0,0,0,0,0,0,0,0,0],"id":19,"left_children":[1,3,5,7,9,11,13,15,17,19,21,23,25,27,29,-1,-1,-1,-1,-1,-1,-1,-1,-1,-1,-1,-1,-1,-1,-1,-1],"loss_changes":[6.863336E2,1.07848785E2,1.4491116E2,3.770221E1,4.9517044E1,4.117464E1,1.0246234E2,8.279633E0,5.392128E0,2.0363304E1,6.6810646E0,1.1597576E1,8.09639E0,3.8901184E1,1.323642E1,0E0,0E0,0E0,0E0,0E0,0E0,0E0,0E0,0E0,0E0,0E0,0E0,0E0,0E0,0E0,0E0],"parents":[2147483647,0,0,1,1,2,2,3,3,4,4,5,5,6,6,7,7,8,8,9,9,10,10,11,11,12,12,13,13,14,14],"right_children":[2,4,6,8,10,12,14,16,18,20,22,24,26,28,30,-1,-1,-1,-1,-1,-1,-1,-1,-1,-1,-1,-1,-1,-1,-1,-1],"split_conditions":[2E0,1E0,-3.4902248E-1,7.468316E-2,4.983888E-1,1E0,3E0,1E0,1.2045648E0,-6.314929E-1,1.2045648E0,-4.9025768E-1,3E0,1E0,1E0,-1.3674593E-2,-1.0321222E-2,-6.085601E-3,-4.5874258E-4,-8.533111E-3,-2.4203926E-3,3.5281428E-3,1.1039769E-2,-6.14946E-3,8.793916E-4,6.827449E-4,5.3195762E-3,6.8471103E-4,6.8016993E-3,8.635197E-3,1.2994801E-2],"split_indices":[15,4,0,0,0,4,15,15,0,0,0,0,15,4,4,0,0,0,0,0,0,0,0,0,0,0,0,0,0,0,0],"split_type":[0,0,0,0,0,0,0,0,0,0,0,0,0,0,0,0,0,0,0,0,0,0,0,0,0,0,0,0,0,0,0],"sum_hessian":[1.8508618E3,7.9104987E2,1.059812E3,4.798473E2,3.1120258E2,2.905291E2,7.6928284E2,3.5888354E2,1.2096373E2,2.5471324E2,5.6489346E1,1.3950107E2,1.5102806E2,4.2597205E2,3.433108E2,1.3892969E2,2.1995387E2,1.00285065E2,2.0678663E1,7.881458E1,1.7589867E2,3.9503048E1,1.6986296E1,1.1002425E2,2.9476828E1,8.140445E1,6.9623604E1,1.7993867E2,2.4603336E2,1.1392027E2,2.2939052E2],"tree_param":{"num_deleted":"0","num_feature":"21","num_nodes":"31","size_leaf_vector":"1"}},{"base_weights":[6.23573E-3,-7.088425E-1,5.3304166E-1,-9.592144E-1,-3.0740166E-1,6.931671E-2,8.4727657E-1,-9.987632E-1,-1.9360347E-1,-8.9706814E-1,-1.1685699E-1,-2.0817888E-1,5.2697366E-1,6.3955337E-1,1.1476227E0,-1.2356545E-2,-8.660417E-3,5.8522136E-3,-5.001677E-3,-9.787885E-3,3.2635268E-3,1.4865682E-3,-2.890638E-3,-1.2993903E-3,-9.074913E-3,5.752353E-3,-6.123865E-3,6.8543158E-3,-3.4678527E-3,1.20904185E-2,7.6953676E-3],"categories":[],"categories_nodes":[],"categories_segments":[],"categories_sizes":[],"default_left":[0,0,0,0,0,0,0,0,0,0,0,0,0,0,0,0,0,0,0,0,0,0,0,0,0,0,0,0,0,0,0],"id":20,"left_children":[1,3,5,7,9,11,13,15,17,19,21,23,25,27,29,-1,-1,-1,-1,-1,-1,-1,-1,-1,-1,-1,-1,-1,-1,-1,-1],"loss_changes":[6.893365E2,7.77251E1,1.5347778E2,1.4268066E1,3.3562042E1,5.429732E1,3.8444305E1,1.3200867E1,6.1900897E0,7.6207314E0,1.0450096E1,1.4454653E1,9.22401E0,1.7138397E1,5.002411E0,0E0,0E0,0E0,0E0,0E0,0E0,0E0,0E0,0E0,0E0,0E0,0E0,0E0,0E0,0E0,0E0],"parents":[2147483647,0,0,1,1,2,2,3,3,4,4,5,5,6,6,7,7,8,8,9,9,10,10,11,11,12,12,13,13,14,14],"right_children":[2,4,6,8,10,12,14,16,18,20,22,24,26,28,30,-1,-1,-1,-1,-1,-1,-1,-1,-1,-1,-1,-1,-1,-1,-1,-1],"split_conditions":[2E0,1E0,1E0,1E0,1E0,3E0,1E0,1E0,3E0,1E0,6E0,1E0,1E0,1E0,1E0,-1.2356545E-2,-8.660417E-3,5.8522136E-3,-5.001677E-3,-9.787885E-3,3.2635268E-3,1.4865682E-3,-2.890638E-3,-1.2993903E-3,-9.074913E-3,5.752353E-3,-6.123865E-3,6.8543158E-3,-3.4678527E-3,1.20904185E-2,7.6953676E-3],"split_indices":[15,4,4,16,15,15,16,15,20,16,20,14,12,12,14,0,0,0,0,0,0,0,0,0,0,0,0,0,0,0,0],"split_type":[0,0,0,0,0,0,0,0,0,0,0,0,0,0,0,0,0,0,0,0,0,0,0,0,0,0,0,0,0,0,0],"sum_hessian":[1.8278956E3,7.7524475E2,1.0526509E3,4.7660495E2,2.986398E2,4.2568164E2,6.2696924E2,4.529049E2,2.3700054E1,7.202883E1,2.26611E2,2.6534036E2,1.6034128E2,3.7248398E2,2.5448528E2,1.5964629E2,2.932586E2,6.437261E0,1.7262794E1,6.7706245E1,4.3225856E0,8.920645E1,1.3740453E2,2.3970744E2,2.563292E1,1.5430046E2,6.040822E0,3.5621997E2,1.6264032E1,2.1703134E2,3.7453934E1],"tree_param":{"num_deleted":"0","num_feature":"21","num_nodes":"31","size_leaf_vector":"1"}},{"base_weights":[-3.7101965E-2,-7.0785373E-1,5.4876393E-1,-1.0024945E0,-2.9611057E-1,2.3856443E-1,1.0030551E0,-1.1608484E0,-5.939456E-1,-7.8662336E-1,2.3517942E-1,-8.5942484E-2,4.6901983E-1,-6.910773E-1,1.0414438E0,-8.201751E-3,-1.217382E-2,-6.7044226E-3,5.739559E-3,-9.041974E-3,-2.1599417E-3,7.786758E-3,-2.7631913E-4,5.3462647E-3,-2.5921804E-3,4.722459E-4,6.957602E-3,-1.0078343E-2,-2.2713311E-3,1.1841756E-2,7.83188E-3],"categories":[],"categories_nodes":[],"categories_segments":[],"categories_sizes":[],"default_left":[0,0,0,0,0,0,0,0,0,0,0,0,0,0,0,0,0,0,0,0,0,0,0,0,0,0,0,0,0,0,0],"id":21,"left_children":[1,3,5,7,9,11,13,15,17,19,21,23,25,27,29,-1,-1,-1,-1,-1,-1,-1,-1,-1,-1,-1,-1,-1,-1,-1,-1],"loss_changes":[7.285806E2,1.0456555E2,1.3922632E2,3.1879028E1,9.451299E1,4.411941E1,2.6815704E1,5.968567E0,1.3130749E1,1.2446823E1,2.4950382E1,2.6548656E1,3.294391E1,1.1660166E0,1.3550446E1,0E0,0E0,0E0,0E0,0E0,0E0,0E0,0E0,0E0,0E0,0E0,0E0,0E0,0E0,0E0,0E0],"parents":[2147483647,0,0,1,1,2,2,3,3,4,4,5,5,6,6,7,7,8,8,9,9,10,10,11,11,12,12,13,13,14,14],"right_children":[2,4,6,8,10,12,14,16,18,20,22,24,26,28,30,-1,-1,-1,-1,-1,-1,-1,-1,-1,-1,-1,-1,-1,-1,-1,-1],"split_conditions":[1E0,-2.0778726E-1,3.571536E-1,9E0,7E0,9E0,3E0,4E0,1E0,1.2045648E0,5E0,3E0,-4.9025768E-1,2E0,6E0,-8.201751E-3,-1.217382E-2,-6.7044226E-3,5.739559E-3,-9.041974E-3,-2.1599417E-3,7.786758E-3,-2.7631913E-4,5.3462647E-3,-2.5921804E-3,4.722459E-4,6.957602E-3,-1.0078343E-2,-2.2713311E-3,1.1841756E-2,7.83188E-3],"split_indices":[3,0,0,18,18,18,18,20,7,0,20,20,0,18,20,0,0,0,0,0,0,0,0,0,0,0,0,0,0,0,0],"split_type":[0,0,0,0,0,0,0,0,0,0,0,0,0,0,0,0,0,0,0,0,0,0,0,0,0,0,0,0,0,0,0],"sum_hessian":[1.852045E3,8.6337164E2,9.886734E2,5.0241324E2,3.6095837E2,5.884159E2,4.0025754E2,3.6074625E2,1.4166699E2,1.8743172E2,1.7352667E2,2.4460783E2,3.43808E2,8.492052E0,3.9176547E2,5.3551514E1,3.0719473E2,1.333581E2,8.308908E0,1.5492578E2,3.250592E1,5.592023E1,1.17606445E2,5.293632E1,1.9167151E2,1.2062428E2,2.2318375E2,4.349869E0,4.1421833E0,2.5000717E2,1.417583E2],"tree_param":{"num_deleted":"0","num_feature":"21","num_nodes":"31","size_leaf_vector":"1"}},{"base_weights":[1.1375296E-2,-6.548879E-1,5.8485514E-1,-8.1984854E-1,1.38751E-1,2.5362265E-1,9.7623634E-1,-1.0985903E0,-3.913973E-1,-3.5926655E-1,7.323557E-1,-6.317249E-1,3.5141814E-1,7.9318744E-1,1.350723E0,-1.2371435E-2,-7.1271574E-3,-6.78479E-3,-1.0559743E-3,-7.367641E-3,3.5374996E-3,1.0840341E-2,4.496973E-3,-8.242387E-3,-9.199546E-4,-3.0716606E-3,4.4937185E-3,4.16723E-3,1.0204555E-2,9.895814E-3,1.464872E-2],"categories":[],"categories_nodes":[],"categories_segments":[],"categories_sizes":[],"default_left":[0,0,0,0,0,0,0,0,0,0,0,0,0,0,0,0,0,0,0,0,0,0,0,0,0,0,0,0,0,0,0],"id":22,"left_children":[1,3,5,7,9,11,13,15,17,19,21,23,25,27,29,-1,-1,-1,-1,-1,-1,-1,-1,-1,-1,-1,-1,-1,-1,-1,-1],"loss_changes":[7.0447186E2,1.11772705E2,1.2820477E2,8.391675E1,4.3904514E1,4.6805016E1,3.003891E1,2.1965332E1,2.2895832E1,2.2048252E1,6.240017E0,5.5220833E0,3.1434834E1,2.586316E1,4.6342163E0,0E0,0E0,0E0,0E0,0E0,0E0,0E0,0E0,0E0,0E0,0E0,0E0,0E0,0E0,0E0,0E0],"parents":[2147483647,0,0,1,1,2,2,3,3,4,4,5,5,6,6,7,7,8,8,9,9,10,10,11,11,12,12,13,13,14,14],"right_children":[2,4,6,8,10,12,14,16,18,20,22,24,26,28,30,-1,-1,-1,-1,-1,-1,-1,-1,-1,-1,-1,-1,-1,-1,-1,-1],"split_conditions":[1E0,4.983888E-1,2.1591838E-1,8E0,7E0,6E0,2.705405E-1,1E0,-4.9025768E-1,1E0,5E0,1.6779338E-1,-9.139633E-1,8E0,1E0,-1.2371435E-2,-7.1271574E-3,-6.78479E-3,-1.0559743E-3,-7.367641E-3,3.5374996E-3,1.0840341E-2,4.496973E-3,-8.242387E-3,-9.199546E-4,-3.0716606E-3,4.4937185E-3,4.16723E-3,1.0204555E-2,9.895814E-3,1.464872E-2],"split_indices":[3,0,0,18,18,18,2,4,0,4,20,2,0,18,4,0,0,0,0,0,0,0,0,0,0,0,0,0,0,0,0],"split_type":[0,0,0,0,0,0,0,0,0,0,0,0,0,0,0,0,0,0,0,0,0,0,0,0,0,0,0,0,0,0,0],"sum_hessian":[1.8417375E3,8.518845E2,9.89853E2,7.052606E2,1.4662392E2,5.3701575E2,4.528373E2,4.2633292E2,2.789277E2,7.994614E1,6.667778E1,5.28751E1,4.8414062E2,3.0625705E2,1.4658026E2,3.1207297E2,1.1425992E2,1.3846637E2,1.4046135E2,5.2249825E1,2.7696314E1,2.8448063E1,3.8229713E1,3.8585182E1,1.4289918E1,6.2408176E1,4.2173245E2,1.1635355E2,1.8990349E2,3.752594E1,1.0905432E2],"tree_param":{"num_deleted":"0","num_feature":"21","num_nodes":"31","size_leaf_vector":"1"}},{"base_weights":[1.9061217E-2,-6.1873865E-1,5.8632916E-1,-8.934275E-1,-2.001208E-1,4.6121478E-1,9.8842585E-1,-9.694956E-1,2.7645454E-1,-3.117088E-1,6.164708E-1,-4.0937852E-2,5.823895E-1,1.0297083E0,-1.4391056E-1,-6.984161E-3,-1.0519348E-2,5.134221E-3,-5.9366524E-3,-1.3356645E-2,-2.745553E-3,8.625022E-3,3.8223213E-3,-1.016281E-2,8.154369E-4,6.2586823E-3,-3.682899E-3,-5.153592E-4,1.0563443E-2,3.2527733E-3,-4.5191487E-3],"categories":[],"categories_nodes":[],"categories_segments":[],"categories_sizes":[],"default_left":[0,0,0,0,0,0,0,0,0,0,0,0,0,0,0,0,0,0,0,0,0,0,0,0,0,0,0,0,0,0,0],"id":23,"left_children":[1,3,5,7,9,11,13,15,17,19,21,23,25,27,29,-1,-1,-1,-1,-1,-1,-1,-1,-1,-1,-1,-1,-1,-1,-1,-1],"loss_changes":[6.73906E2,1.00646454E2,4.9138184E1,4.735611E1,3.196505E1,4.5887344E1,1.1043243E1,1.0373169E1,7.126191E0,1.1329016E1,2.1055222E0,1.7698732E1,2.5331894E1,6.5343018E0,1.4585476E0,0E0,0E0,0E0,0E0,0E0,0E0,0E0,0E0,0E0,0E0,0E0,0E0,0E0,0E0,0E0,0E0],"parents":[2147483647,0,0,1,1,2,2,3,3,4,4,5,5,6,6,7,7,8,8,9,9,10,10,11,11,12,12,13,13,14,14],"right_children":[2,4,6,8,10,12,14,16,18,20,22,24,26,28,30,-1,-1,-1,-1,-1,-1,-1,-1,-1,-1,-1,-1,-1,-1,-1,-1],"split_conditions":[1E0,8E0,6.81529E-1,2.530977E0,1E0,7E0,1E0,5E0,7E0,1E0,1E0,3E0,1E0,4E0,8E0,-6.984161E-3,-1.0519348E-2,5.134221E-3,-5.9366524E-3,-1.3356645E-2,-2.745553E-3,8.625022E-3,3.8223213E-3,-1.016281E-2,8.154369E-4,6.2586823E-3,-3.682899E-3,-5.153592E-4,1.0563443E-2,3.2527733E-3,-4.5191487E-3],"split_indices":[3,18,2,2,8,18,12,20,20,5,6,18,12,18,18,0,0,0,0,0,0,0,0,0,0,0,0,0,0,0,0],"split_type":[0,0,0,0,0,0,0,0,0,0,0,0,0,0,0,0,0,0,0,0,0,0,0,0,0,0,0,0,0,0,0],"sum_hessian":[1.8606277E3,8.758204E2,9.8480725E2,5.281346E2,3.4768582E2,7.527366E2,2.3207071E2,4.9605157E2,3.2082993E1,3.0643015E2,4.125568E1,1.4646053E2,6.06276E2,2.2399498E2,8.075723E0,1.1788615E2,3.7816544E2,2.5537952E1,6.5450416E0,9.505563E0,2.969246E2,1.8813194E1,2.2442488E1,1.5526078E1,1.3093445E2,5.800877E2,2.6188322E1,5.3628945E0,2.186321E2,3.1782157E0,4.897507E0],"tree_param":{"num_deleted":"0","num_feature":"21","num_nodes":"31","size_leaf_vector":"1"}},{"base_weights":[6.3905907E-3,-7.149269E-1,5.232875E-1,-1.0933838E0,-6.604814E-2,-5.2621767E-2,8.103044E-1,-1.3756511E0,-9.259027E-1,-1.7604087E-3,-1.07738385E-2,-3.0459955E-1,4.1644016E-1,5.432794E-1,1.0880389E0,-1.0373E-2,-1.4032795E-2,-9.528971E-3,1.9106264E-3,5.235145E-3,-1.213939E-3,-4.1690036E-3,3.563839E-3,-9.788474E-3,4.595745E-3,5.8992268E-3,-3.6025713E-3,1.2084166E-2,9.687022E-3],"categories":[],"categories_nodes":[],"categories_segments":[],"categories_sizes":[],"default_left":[0,0,0,0,0,0,0,0,0,0,0,0,0,0,0,0,0,0,0,0,0,0,0,0,0,0,0,0,0],"id":24,"left_children":[1,3,5,7,9,11,13,15,17,19,-1,21,23,25,27,-1,-1,-1,-1,-1,-1,-1,-1,-1,-1,-1,-1,-1,-1],"loss_changes":[6.846612E2,1.8817801E2,1.7686389E2,2.1612549E1,1.8427736E1,4.2291058E1,5.235974E1,2.104187E-1,9.435516E0,1.6874681E1,0E0,1.7417908E1,7.9783936E0,1.5637581E1,3.8426208E0,0E0,0E0,0E0,0E0,0E0,0E0,0E0,0E0,0E0,0E0,0E0,0E0,0E0,0E0],"parents":[2147483647,0,0,1,1,2,2,3,3,4,4,5,5,6,6,7,7,8,8,9,9,11,11,12,12,13,13,14,14],"right_children":[2,4,6,8,10,12,14,16,18,20,-1,22,24,26,28,-1,-1,-1,-1,-1,-1,-1,-1,-1,-1,-1,-1,-1,-1],"split_conditions":[2E0,1E0,1E0,1E0,1E0,3E0,3E0,4E0,1E0,4E0,-1.07738385E-2,1E0,1E0,1E0,-3.247376E-1,-1.0373E-2,-1.4032795E-2,-9.528971E-3,1.9106264E-3,5.235145E-3,-1.213939E-3,-4.1690036E-3,3.563839E-3,-9.788474E-3,4.595745E-3,5.8992268E-3,-3.6025713E-3,1.2084166E-2,9.687022E-3],"split_indices":[15,3,3,15,12,15,15,20,8,20,0,16,5,12,1,0,0,0,0,0,0,0,0,0,0,0,0,0,0],"split_type":[0,0,0,0,0,0,0,0,0,0,0,0,0,0,0,0,0,0,0,0,0,0,0,0,0,0,0,0,0],"sum_hessian":[1.8343037E3,7.6557654E2,1.0687272E3,4.831156E2,2.8246097E2,3.5573978E2,7.129874E2,1.7722026E2,3.0589532E2,2.6652072E2,1.5940222E1,2.3164944E2,1.2409034E2,3.6500922E2,3.479782E2,1.6288479E1,1.6093178E2,2.9882043E2,7.074908E0,4.881457E1,2.1770616E2,1.9832362E2,3.3325825E1,3.0706162E0,1.2101972E2,3.474214E2,1.7587837E1,1.6869026E2,1.7928795E2],"tree_param":{"num_deleted":"0","num_feature":"21","num_nodes":"29","size_leaf_vector":"1"}},{"base_weights":[1.3327456E-2,-6.386719E-1,5.931394E-1,-9.3515277E-1,-1.5893196E-1,3.5259554E-1,1.0704805E0,-1.0670353E0,-3.4256604E-1,-6.6976833E-1,2.0351222E-1,1.5367582E-1,8.229026E-1,6.5360075E-1,1.2300102E0,-1.1260811E-2,-5.090443E-6,-6.248942E-3,1.0561252E-3,-9.311241E-3,-4.7753053E-3,-1.8242664E-4,8.508456E-3,-3.676948E-3,3.6049779E-3,4.5950925E-3,1.09050125E-2,3.215596E-3,1.0396945E-2,7.596425E-3,1.3241245E-2],"categories":[],"categories_nodes":[],"categories_segments":[],"categories_sizes":[],"default_left":[0,0,0,0,0,0,0,0,0,0,0,0,0,0,0,0,0,0,0,0,0,0,0,0,0,0,0,0,0,0,0],"id":25,"left_children":[1,3,5,7,9,11,13,15,17,19,21,23,25,27,29,-1,-1,-1,-1,-1,-1,-1,-1,-1,-1,-1,-1,-1,-1,-1,-1],"loss_changes":[6.932333E2,1.22622314E2,1.1106885E2,4.1310455E1,6.1401173E1,6.039068E1,2.0792328E1,2.7438446E1,1.2535788E1,6.4670296E0,2.791109E1,4.9284824E1,1.8174118E1,1.1461063E1,9.340729E0,0E0,0E0,0E0,0E0,0E0,0E0,0E0,0E0,0E0,0E0,0E0,0E0,0E0,0E0,0E0,0E0],"parents":[2147483647,0,0,1,1,2,2,3,3,4,4,5,5,6,6,7,7,8,8,9,9,10,10,11,11,12,12,13,13,14,14],"right_children":[2,4,6,8,10,12,14,16,18,20,22,24,26,28,30,-1,-1,-1,-1,-1,-1,-1,-1,-1,-1,-1,-1,-1,-1,-1,-1],"split_conditions":[1E0,8E0,1E0,4.983888E-1,-4.9025768E-1,4.983888E-1,1E0,2.530977E0,1E0,-9.139633E-1,1E0,8E0,8E0,4.983888E-1,-3.4902248E-1,-1.1260811E-2,-5.090443E-6,-6.248942E-3,1.0561252E-3,-9.311241E-3,-4.7753053E-3,-1.8242664E-4,8.508456E-3,-3.676948E-3,3.6049779E-3,4.5950925E-3,1.09050125E-2,3.215596E-3,1.0396945E-2,7.596425E-3,1.3241245E-2],"split_indices":[3,18,16,0,0,0,4,2,4,0,16,18,18,0,0,0,0,0,0,0,0,0,0,0,0,0,0,0,0,0,0],"split_type":[0,0,0,0,0,0,0,0,0,0,0,0,0,0,0,0,0,0,0,0,0,0,0,0,0,0,0,0,0,0,0],"sum_hessian":[1.831769E3,8.6216345E2,9.696055E2,5.322697E2,3.2989374E2,6.458729E2,3.237326E2,4.3472034E2,9.7549385E1,1.3656635E2,1.9332738E2,4.548273E2,1.9104565E2,9.100839E1,2.327242E2,4.1186264E2,2.2857697E1,5.9606335E1,3.7943054E1,5.6249302E1,8.031705E1,1.4472218E2,4.8605186E1,1.2895958E2,3.258677E2,8.217327E1,1.0887238E2,4.991461E1,4.1093784E1,4.0313892E1,1.924103E2],"tree_param":{"num_deleted":"0","num_feature":"21","num_nodes":"31","size_leaf_vector":"1"}},{"base_weights":[-2.4181131E-2,-7.034661E-1,4.7526723E-1,-1.0633907E0,-3.1009224E-1,-1.10119104E-1,7.023654E-1,-1.2189442E0,-6.28849E-1,-8.265082E-1,-8.8341633E-4,-5.5593675E-1,3.7664375E-1,-2.739451E-1,8.265878E-1,-1.2402395E-2,2.9016772E-4,-1.0228839E-2,-2.2160115E-3,-1.2237872E-2,-6.034212E-3,-1.5506693E-3,4.785117E-3,-6.654704E-3,8.04612E-3,-9.962341E-4,8.925394E-3,-5.2963034E-3,3.3169746E-4,5.4256385E-3,1.1742031E-2],"categories":[],"categories_nodes":[],"categories_segments":[],"categories_sizes":[],"default_left":[0,0,0,0,0,0,0,0,0,0,0,0,0,0,0,0,0,0,0,0,0,0,0,0,0,0,0,0,0,0,0],"id":26,"left_children":[1,3,5,7,9,11,13,15,17,19,21,23,25,27,29,-1,-1,-1,-1,-1,-1,-1,-1,-1,-1,-1,-1,-1,-1,-1,-1],"loss_changes":[6.1372833E2,1.0819214E2,1.3866934E2,2.6260803E1,5.8703205E1,6.3631653E1,9.133847E1,7.8327026E0,1.7018684E1,1.1464104E1,1.714488E1,2.3328808E1,3.4563545E1,6.735273E0,6.518762E1,0E0,0E0,0E0,0E0,0E0,0E0,0E0,0E0,0E0,0E0,0E0,0E0,0E0,0E0,0E0,0E0],"parents":[2147483647,0,0,1,1,2,2,3,3,4,4,5,5,6,6,7,7,8,8,9,9,10,10,11,11,12,12,13,13,14,14],"right_children":[2,4,6,8,10,12,14,16,18,20,22,24,26,28,30,-1,-1,-1,-1,-1,-1,-1,-1,-1,-1,-1,-1,-1,-1,-1,-1],"split_conditions":[2E0,8E0,7E0,1E0,-4.9025768E-1,1E0,-7.727281E-1,1.9107409E0,-2.0778726E-1,1E0,4.983888E-1,4E0,4.983888E-1,3E0,3E0,-1.2402395E-2,2.9016772E-4,-1.0228839E-2,-2.2160115E-3,-1.2237872E-2,-6.034212E-3,-1.5506693E-3,4.785117E-3,-6.654704E-3,8.04612E-3,-9.962341E-4,8.925394E-3,-5.2963034E-3,3.3169746E-4,5.4256385E-3,1.1742031E-2],"split_indices":[15,18,18,4,0,4,0,0,0,15,0,15,0,15,15,0,0,0,0,0,0,0,0,0,0,0,0,0,0,0,0],"split_type":[0,0,0,0,0,0,0,0,0,0,0,0,0,0,0,0,0,0,0,0,0,0,0,0,0,0,0,0,0,0,0],"sum_hessian":[1.8069935E3,7.6547925E2,1.0415143E3,3.988453E2,3.6663397E2,2.9125842E2,7.5025586E2,2.923774E2,1.0646787E2,1.3668333E2,2.2995064E2,1.5194893E2,1.393095E2,8.454889E1,6.65707E2,2.8747806E2,4.899352E0,5.3343437E1,5.3124435E1,4.7538994E1,8.914435E1,1.7450327E2,5.544737E1,1.4110025E2,1.0848679E1,7.285643E1,6.645307E1,4.574218E1,3.880671E1,3.6777344E2,2.979335E2],"tree_param":{"num_deleted":"0","num_feature":"21","num_nodes":"31","size_leaf_vector":"1"}},{"base_weights":[1.769121E-5,-6.277026E-1,5.406254E-1,-8.3946097E-1,-2.2524455E-1,1.911047E-1,7.253829E-1,-9.1388935E-1,-2.421651E-1,-3.6740345E-1,5.1878214E-1,2.5842917E-1,-9.630641E-1,5.9054446E-1,1.0096782E0,-9.308246E-3,2.5662177E-3,-5.5188695E-3,2.982444E-3,-8.210415E-4,-5.4742536E-3,8.366938E-3,2.3175974E-3,3.8759073E-3,-4.950919E-5,-1.1795674E-2,-3.7080662E-3,6.2949583E-3,-1.9687784E-3,1.0338332E-2,3.4272491E-3],"categories":[],"categories_nodes":[],"categories_segments":[],"categories_sizes":[],"default_left":[0,0,0,0,0,0,0,0,0,0,0,0,0,0,0,0,0,0,0,0,0,0,0,0,0,0,0,0,0,0,0],"id":27,"left_children":[1,3,5,7,9,11,13,15,17,19,21,23,25,27,29,-1,-1,-1,-1,-1,-1,-1,-1,-1,-1,-1,-1,-1,-1,-1,-1],"loss_changes":[6.202434E2,7.188718E1,6.3276062E1,2.4397736E1,3.1175053E1,2.67415E1,2.4016632E1,9.9930725E0,1.0662666E1,1.26171E1,4.1319017E0,1.09879E1,1.9993095E0,1.3555328E1,2.950653E0,0E0,0E0,0E0,0E0,0E0,0E0,0E0,0E0,0E0,0E0,0E0,0E0,0E0,0E0,0E0,0E0],"parents":[2147483647,0,0,1,1,2,2,3,3,4,4,5,5,6,6,7,7,8,8,9,9,10,10,11,11,12,12,13,13,14,14],"right_children":[2,4,6,8,10,12,14,16,18,20,22,24,26,28,30,-1,-1,-1,-1,-1,-1,-1,-1,-1,-1,-1,-1,-1,-1,-1,-1],"split_conditions":[1E0,1E0,1E0,3.7328762E-1,2.705405E-1,1E0,1.6779338E-1,1E0,1E0,1E0,1.7090001E0,5E0,-2.4319509E-1,1E0,1E0,-9.308246E-3,2.5662177E-3,-5.5188695E-3,2.982444E-3,-8.210415E-4,-5.4742536E-3,8.366938E-3,2.3175974E-3,3.8759073E-3,-4.950919E-5,-1.1795674E-2,-3.7080662E-3,6.2949583E-3,-1.9687784E-3,1.0338332E-2,3.4272491E-3],"split_indices":[3,4,4,2,2,12,2,7,17,10,2,19,2,12,12,0,0,0,0,0,0,0,0,0,0,0,0,0,0,0,0],"split_type":[0,0,0,0,0,0,0,0,0,0,0,0,0,0,0,0,0,0,0,0,0,0,0,0,0,0,0,0,0,0,0],"sum_hessian":[1.825737E3,8.4472894E2,9.810081E2,5.527872E2,2.9194174E2,3.399437E2,6.4106445E2,4.9106592E2,6.1721245E1,2.4553444E2,4.640732E1,3.219405E2,1.8003202E1,4.3691647E2,2.0414798E2,4.8426422E2,6.8017035E0,3.9221317E1,2.2499931E1,9.5554886E1,1.4997955E2,2.1110178E1,2.5297138E1,2.1569304E2,1.06247444E2,1.24576025E1,5.5455995E0,4.165134E2,2.04031E1,1.9648195E2,7.66603E0],"tree_param":{"num_deleted":"0","num_feature":"21","num_nodes":"31","size_leaf_vector":"1"}},{"base_weights":[1.3614151E-2,-4.6259153E-1,5.159242E-1,-9.180494E-1,-8.906381E-2,-5.0202465E-1,6.9630605E-1,-9.783062E-1,4.8475724E-1,-2.5469264E-1,6.743232E-1,-7.6373833E-1,5.686981E-2,4.085158E-1,9.366583E-1,-1.150471E-2,-7.4925735E-3,-3.1496584E-3,1.0044131E-2,-5.699043E-3,-1.0987141E-3,1.4357327E-3,8.316219E-3,-1.0747983E-2,-5.59416E-3,-3.0637418E-3,6.7935414E-3,-1.6158593E-3,6.8088504E-3,8.408848E-3,1.3232381E-2],"categories":[],"categories_nodes":[],"categories_segments":[],"categories_sizes":[],"default_left":[0,0,0,0,0,0,0,0,0,0,0,0,0,0,0,0,0,0,0,0,0,0,0,0,0,0,0,0,0,0,0],"id":28,"left_children":[1,3,5,7,9,11,13,15,17,19,21,23,25,27,29,-1,-1,-1,-1,-1,-1,-1,-1,-1,-1,-1,-1,-1,-1,-1,-1],"loss_changes":[4.3793436E2,1.5980945E2,1.6394911E2,3.6261078E1,6.56001E1,1.9745556E1,5.199875E1,1.5158691E1,7.840564E0,1.9381227E1,7.6056633E0,5.233715E0,1.013205E1,5.389853E1,1.4136536E1,0E0,0E0,0E0,0E0,0E0,0E0,0E0,0E0,0E0,0E0,0E0,0E0,0E0,0E0,0E0,0E0],"parents":[2147483647,0,0,1,1,2,2,3,3,4,4,5,5,6,6,7,7,8,8,9,9,10,10,11,11,12,12,13,13,14,14],"right_children":[2,4,6,8,10,12,14,16,18,20,22,24,26,28,30,-1,-1,-1,-1,-1,-1,-1,-1,-1,-1,-1,-1,-1,-1,-1,-1],"split_conditions":[-6.655205E-2,8E0,5E0,1E0,1E0,1.0633296E0,4.983888E-1,6E0,6E0,-7.727281E-1,-7.727281E-1,3E0,4E0,8E0,1E0,-1.150471E-2,-7.4925735E-3,-3.1496584E-3,1.0044131E-2,-5.699043E-3,-1.0987141E-3,1.4357327E-3,8.316219E-3,-1.0747983E-2,-5.59416E-3,-3.0637418E-3,6.7935414E-3,-1.6158593E-3,6.8088504E-3,8.408848E-3,1.3232381E-2],"split_indices":[0,18,18,8,8,0,0,18,18,0,0,18,18,18,8,0,0,0,0,0,0,0,0,0,0,0,0,0,0,0,0],"split_type":[0,0,0,0,0,0,0,0,0,0,0,0,0,0,0,0,0,0,0,0,0,0,0,0,0,0,0,0,0,0,0],"sum_hessian":[1.8288093E3,9.388393E2,8.899701E2,4.2236923E2,5.164701E2,1.3369667E2,7.562734E2,4.0526395E2,1.7105282E1,4.249392E2,9.153089E1,9.080764E1,4.288904E1,3.4540088E2,4.1087253E2,2.2906453E2,1.761994E2,6.8922963E0,1.0212985E1,1.3284949E2,2.9208972E2,2.1362679E1,7.016821E1,3.431153E1,5.649611E1,2.7404982E1,1.5484059E1,1.1179894E2,2.3360193E2,3.3183658E2,7.903594E1],"tree_param":{"num_deleted":"0","num_feature":"21","num_nodes":"31","size_leaf_vector":"1"}},{"base_weights":[1.9569348E-3,-6.31132E-1,5.434634E-1,-1.0358562E0,-1.08086474E-1,-5.3560443E-2,7.795795E-1,-1.2974515E-2,-8.828634E-1,-2.850442E-1,4.0794006E-1,-3.5577515E-1,1.6576727E-1,5.3483236E-1,1.0291439E0,-9.202077E-3,6.8591023E-3,-4.4517503E-3,2.3671193E-3,1.4236303E-3,7.434703E-3,-2.8797155E-3,-1.0002711E-2,-3.4767592E-3,2.7174973E-3,5.9161643E-3,-4.8089446E-3,1.0670846E-2,1.326419E-3],"categories":[],"categories_nodes":[],"categories_segments":[],"categories_sizes":[],"default_left":[0,0,0,0,0,0,0,0,0,0,0,0,0,0,0,0,0,0,0,0,0,0,0,0,0,0,0,0,0],"id":29,"left_children":[1,3,5,7,9,11,13,-1,15,17,19,21,23,25,27,-1,-1,-1,-1,-1,-1,-1,-1,-1,-1,-1,-1,-1,-1],"loss_changes":[6.2735004E2,1.7847769E2,1.3908008E2,1.7885132E1,3.382434E1,1.8649231E1,4.262439E1,0E0,1.8391663E1,2.3120459E1,8.330449E0,4.879942E0,8.975189E0,2.098793E1,1.1725983E1,0E0,0E0,0E0,0E0,0E0,0E0,0E0,0E0,0E0,0E0,0E0,0E0,0E0,0E0],"parents":[2147483647,0,0,1,1,2,2,3,3,4,4,5,5,6,6,8,8,9,9,10,10,11,11,12,12,13,13,14,14],"right_children":[2,4,6,8,10,12,14,-1,16,18,20,22,24,26,28,-1,-1,-1,-1,-1,-1,-1,-1,-1,-1,-1,-1,-1,-1],"split_conditions":[1E0,2E0,2E0,1E0,1E0,1E0,3E0,-1.2974515E-2,1E0,3E0,1E0,5.2206803E-2,1E0,1E0,1E0,-9.202077E-3,6.8591023E-3,-4.4517503E-3,2.3671193E-3,1.4236303E-3,7.434703E-3,-2.8797155E-3,-1.0002711E-2,-3.4767592E-3,2.7174973E-3,5.9161643E-3,-4.8089446E-3,1.0670846E-2,1.326419E-3],"split_indices":[3,15,15,15,16,4,15,0,8,15,4,1,15,12,12,0,0,0,0,0,0,0,0,0,0,0,0,0,0],"split_type":[0,0,0,0,0,0,0,0,0,0,0,0,0,0,0,0,0,0,0,0,0,0,0,0,0,0,0,0,0],"sum_hessian":[1.8279595E3,8.42641E2,9.853185E2,4.7450006E2,3.6814096E2,2.794634E2,7.0585504E2,1.7234126E2,3.0215878E2,2.7446725E2,9.36737E1,1.17262985E2,1.6220042E2,3.5795377E2,3.479013E2,2.9553702E2,6.621776E0,2.1012508E2,6.434218E1,5.3082462E1,4.0591236E1,1.0740985E2,9.853138E0,2.7361969E1,1.3483846E2,3.3939734E2,1.8556433E1,3.3359305E2,1.4308259E1],"tree_param":{"num_deleted":"0","num_feature":"21","num_nodes":"29","size_leaf_vector":"1"}},{"base_weights":[1.0428627E-4,-2.3739162E-1,7.9069E-1,-6.826897E-1,1.8177567E-1,7.2769034E-1,1.182611E0,-1.2104925E0,-5.720905E-1,3.7005854E-1,-3.7758727E-2,3.9489132E-1,8.0751157E-1,1.3275735E0,7.4712455E-1,-1.2682913E-2,-8.330649E-3,-1.4380604E-4,-6.7844377E-3,4.0558334E-3,-6.6165244E-3,-3.6772054E-3,2.4012716E-3,4.9229846E-3,-2.8479504E-3,-4.7437763E-3,8.248944E-3,1.4685863E-2,5.7085813E-3,1.1876095E-2,5.0131944E-3],"categories":[],"categories_nodes":[],"categories_segments":[],"categories_sizes":[],"default_left":[0,0,0,0,0,0,0,0,0,0,0,0,0,0,0,0,0,0,0,0,0,0,0,0,0,0,0,0,0,0,0],"id":30,"left_children":[1,3,5,7,9,11,13,15,17,19,21,23,25,27,29,-1,-1,-1,-1,-1,-1,-1,-1,-1,-1,-1,-1,-1,-1,-1,-1],"loss_changes":[3.4496182E2,2.6383353E2,9.618683E0,3.9309692E1,3.0128428E1,9.463272E0,2.6176147E0,1.5137177E0,3.3707184E1,1.4646114E1,3.101311E1,4.9860716E0,6.988144E0,3.6016693E0,1.1983309E0,0E0,0E0,0E0,0E0,0E0,0E0,0E0,0E0,0E0,0E0,0E0,0E0,0E0,0E0,0E0,0E0],"parents":[2147483647,0,0,1,1,2,2,3,3,4,4,5,5,6,6,7,7,8,8,9,9,10,10,11,11,12,12,13,13,14,14],"right_children":[2,4,6,8,10,12,14,16,18,20,22,24,26,28,30,-1,-1,-1,-1,-1,-1,-1,-1,-1,-1,-1,-1,-1,-1,-1,-1],"split_conditions":[1E0,8E0,1E0,3E0,6E0,7E0,1.1E1,1E0,4E0,1E0,1E0,7E0,1E0,6E0,1E0,-1.2682913E-2,-8.330649E-3,-1.4380604E-4,-6.7844377E-3,4.0558334E-3,-6.6165244E-3,-3.6772054E-3,2.4012716E-3,4.9229846E-3,-2.8479504E-3,-4.7437763E-3,8.248944E-3,1.4685863E-2,5.7085813E-3,1.1876095E-2,5.0131944E-3],"split_indices":[16,18,7,18,20,18,18,14,20,12,17,20,5,20,11,0,0,0,0,0,0,0,0,0,0,0,0,0,0,0,0],"split_type":[0,0,0,0,0,0,0,0,0,0,0,0,0,0,0,0,0,0,0,0,0,0,0,0,0,0,0,0,0,0,0],"sum_hessian":[1.8352405E3,1.4118219E3,4.2341864E2,6.84268E2,7.2755383E2,3.672426E2,5.617602E1,1.16822334E2,5.674457E2,3.912845E2,3.3626932E2,7.219342E1,2.950492E2,4.0609608E1,1.5566416E1,9.926121E1,1.7561127E1,9.10613E1,4.763844E2,3.788466E2,1.2437911E1,1.5358234E2,1.8268698E2,6.3385254E1,8.808165E0,3.5956945E0,2.914535E2,3.343779E1,7.171815E0,4.203033E0,1.1363382E1],"tree_param":{"num_deleted":"0","num_feature":"21","num_nodes":"31","size_leaf_vector":"1"}},{"base_weights":[-1.1501465E-2,-6.849166E-1,4.7374374E-1,-1.0675336E0,-2.8447354E-1,-2.992249E-1,6.5200377E-1,-1.2354445E0,-6.118132E-1,-6.605276E-1,2.2330862E-1,-7.567561E-1,3.086727E-1,3.257421E-1,1.0287417E0,-1.2663992E-2,2.0028611E-4,-1.1763907E-2,-3.983338E-3,-1.0886122E-2,-4.6185995E-3,-1.0221263E-3,4.6676556E-3,-8.397566E-3,3.1018057E-3,-2.4528592E-3,8.668493E-3,-3.2636866E-3,4.993149E-3,8.2901055E-3,1.2471085E-2],"categories":[],"categories_nodes":[],"categories_segments":[],"categories_sizes":[],"default_left":[0,0,0,0,0,0,0,0,0,0,0,0,0,0,0,0,0,0,0,0,0,0,0,0,0,0,0,0,0,0,0],"id":31,"left_children":[1,3,5,7,9,11,13,15,17,19,21,23,25,27,29,-1,-1,-1,-1,-1,-1,-1,-1,-1,-1,-1,-1,-1,-1,-1,-1],"loss_changes":[5.9141125E2,1.1582825E2,1.4513695E2,2.887622E1,7.112803E1,5.5251686E1,1.04769104E2,1.098465E1,1.2336704E1,1.768113E1,1.2640987E1,1.0281059E1,2.6698591E1,5.2196907E1,1.6254333E1,0E0,0E0,0E0,0E0,0E0,0E0,0E0,0E0,0E0,0E0,0E0,0E0,0E0,0E0,0E0,0E0],"parents":[2147483647,0,0,1,1,2,2,3,3,4,4,5,5,6,6,7,7,8,8,9,9,10,10,11,11,12,12,13,13,14,14],"right_children":[2,4,6,8,10,12,14,16,18,20,22,24,26,28,30,-1,-1,-1,-1,-1,-1,-1,-1,-1,-1,-1,-1,-1,-1,-1,-1],"split_conditions":[2E0,8E0,6E0,1E0,-2.0778726E-1,1E0,2.1591838E-1,1.6282705E0,1E0,1E0,1E0,4E0,4.983888E-1,-7.727281E-1,3E0,-1.2663992E-2,2.0028611E-4,-1.1763907E-2,-3.983338E-3,-1.0886122E-2,-4.6185995E-3,-1.0221263E-3,4.6676556E-3,-8.397566E-3,3.1018057E-3,-2.4528592E-3,8.668493E-3,-3.2636866E-3,4.993149E-3,8.2901055E-3,1.2471085E-2],"split_indices":[15,18,18,4,0,4,0,0,15,15,4,15,0,0,15,0,0,0,0,0,0,0,0,0,0,0,0,0,0,0,0],"split_type":[0,0,0,0,0,0,0,0,0,0,0,0,0,0,0,0,0,0,0,0,0,0,0,0,0,0,0,0,0,0,0],"sum_hessian":[1.8078689E3,7.5696045E2,1.0509084E3,3.8624426E2,3.7071622E2,1.9681279E2,8.5409564E2,2.8099884E2,1.0524543E2,2.128113E2,1.579049E2,1.12155E2,8.465779E1,4.587097E2,3.95386E2,2.742288E2,6.770034E0,2.7639124E1,7.760631E1,6.603688E1,1.4677441E2,6.78133E1,9.0091606E1,1.042574E2,7.8975964E0,4.277078E1,4.1887016E1,9.6243576E1,3.624661E2,2.0900983E2,1.8637617E2],"tree_param":{"num_deleted":"0","num_feature":"21","num_nodes":"31","size_leaf_vector":"1"}},{"base_weights":[1.6973428E-2,-6.1779207E-1,5.593608E-1,-1.0404199E0,-6.865045E-2,-2.219623E-2,7.890079E-1,-1.1610131E0,-7.509419E-1,-2.5400415E-1,4.8089838E-1,-3.055765E-1,1.860611E-1,5.600741E-1,1.0201466E0,-1.3201595E-2,-1.0573784E-2,-9.254894E-3,-5.1029115E-3,-4.7575384E-3,7.377412E-4,6.106841E-3,-1.5155505E-3,-5.191723E-3,-9.5631555E-4,2.6026713E-3,-8.10149E-3,6.1149173E-3,-3.8607132E-3,1.0465605E-2,1.9788386E-3],"categories":[],"categories_nodes":[],"categories_segments":[],"categories_sizes":[],"default_left":[0,0,0,0,0,0,0,0,0,0,0,0,0,0,0,0,0,0,0,0,0,0,0,0,0,0,0,0,0,0,0],"id":32,"left_children":[1,3,5,7,9,11,13,15,17,19,21,23,25,27,29,-1,-1,-1,-1,-1,-1,-1,-1,-1,-1,-1,-1,-1,-1,-1,-1],"loss_changes":[6.296653E2,1.955032E2,1.3172589E2,1.5749451E1,3.7562458E1,1.6590603E1,3.6841553E1,4.1174316E0,5.528206E0,2.0060642E1,7.7304707E0,5.289073E0,1.2194378E1,1.7624405E1,7.4077454E0,0E0,0E0,0E0,0E0,0E0,0E0,0E0,0E0,0E0,0E0,0E0,0E0,0E0,0E0,0E0,0E0],"parents":[2147483647,0,0,1,1,2,2,3,3,4,4,5,5,6,6,7,7,8,8,9,9,10,10,11,11,12,12,13,13,14,14],"right_children":[2,4,6,8,10,12,14,16,18,20,22,24,26,28,30,-1,-1,-1,-1,-1,-1,-1,-1,-1,-1,-1,-1,-1,-1,-1,-1],"split_conditions":[1E0,2E0,2E0,1E0,1E0,1E0,3E0,1E0,1E0,1E0,1E0,1E0,1E0,1E0,1E0,-1.3201595E-2,-1.0573784E-2,-9.254894E-3,-5.1029115E-3,-4.7575384E-3,7.377412E-4,6.106841E-3,-1.5155505E-3,-5.191723E-3,-9.5631555E-4,2.6026713E-3,-8.10149E-3,6.1149173E-3,-3.8607132E-3,1.0465605E-2,1.9788386E-3],"split_indices":[3,15,15,4,16,4,15,15,17,4,14,17,12,12,12,0,0,0,0,0,0,0,0,0,0,0,0,0,0,0,0],"split_type":[0,0,0,0,0,0,0,0,0,0,0,0,0,0,0,0,0,0,0,0,0,0,0,0,0,0,0,0,0,0,0],"sum_hessian":[1.8268832E3,8.416944E2,9.851888E2,4.7513138E2,3.6656305E2,2.791569E2,7.060319E2,3.3328E2,1.4185138E2,2.7451236E2,9.205067E1,1.18052704E2,1.6110419E2,3.5642752E2,3.4960437E2,1.26808426E2,2.0647156E2,8.056823E1,6.128315E1,1.6346977E2,1.11042595E2,7.640585E1,1.5644817E1,5.7787453E1,6.026525E1,1.5062326E2,1.0480933E1,3.3839157E2,1.8035961E1,3.3845914E2,1.1145243E1],"tree_param":{"num_deleted":"0","num_feature":"21","num_nodes":"31","size_leaf_vector":"1"}},{"base_weights":[-1.4507332E-3,-6.3398916E-1,5.388816E-1,-8.551683E-1,-1.9603583E-1,3.9176905E-1,8.8727194E-1,-4.0538618E-1,-9.652116E-1,3.485932E-2,-6.042602E-1,1.295569E-1,5.408137E-1,5.356154E-1,1.032575E0,-6.0124737E-3,-1.2764323E-3,-1.0083869E-2,-4.2559238E-4,-2.2105728E-3,5.830955E-3,-2.2701698E-3,-8.037651E-3,3.2650419E-3,-8.657497E-4,-8.204884E-3,5.5565094E-3,6.9757975E-3,3.353715E-3,1.099412E-2,7.5870203E-3],"categories":[],"categories_nodes":[],"categories_segments":[],"categories_sizes":[],"default_left":[0,0,0,0,0,0,0,0,0,0,0,0,0,0,0,0,0,0,0,0,0,0,0,0,0,0,0,0,0,0,0],"id":33,"left_children":[1,3,5,7,9,11,13,15,17,19,21,23,25,27,29,-1,-1,-1,-1,-1,-1,-1,-1,-1,-1,-1,-1,-1,-1,-1,-1],"loss_changes":[6.192987E2,8.0692535E1,4.973712E1,2.704657E1,2.6546024E1,2.6852058E1,1.4231277E1,5.9447575E0,1.7670563E1,2.5480326E1,7.473171E0,1.0711279E1,9.320847E0,2.5771637E0,2.8939056E0,0E0,0E0,0E0,0E0,0E0,0E0,0E0,0E0,0E0,0E0,0E0,0E0,0E0,0E0,0E0,0E0],"parents":[2147483647,0,0,1,1,2,2,3,3,4,4,5,5,6,6,7,7,8,8,9,9,10,10,11,11,12,12,13,13,14,14],"right_children":[2,4,6,8,10,12,14,16,18,20,22,24,26,28,30,-1,-1,-1,-1,-1,-1,-1,-1,-1,-1,-1,-1,-1,-1,-1,-1],"split_conditions":[1E0,1E0,1.6779338E-1,4E0,7E0,1E0,1E0,-3.459422E-1,2.530977E0,-2.4319509E-1,1E0,6E0,1E0,5.2206803E-2,5E0,-6.0124737E-3,-1.2764323E-3,-1.0083869E-2,-4.2559238E-4,-2.2105728E-3,5.830955E-3,-2.2701698E-3,-8.037651E-3,3.2650419E-3,-8.657497E-4,-8.204884E-3,5.5565094E-3,6.9757975E-3,3.353715E-3,1.099412E-2,7.5870203E-3],"split_indices":[3,4,2,20,20,4,4,2,2,2,10,20,5,1,19,0,0,0,0,0,0,0,0,0,0,0,0,0,0,0,0],"split_type":[0,0,0,0,0,0,0,0,0,0,0,0,0,0,0,0,0,0,0,0,0,0,0,0,0,0,0,0,0,0,0],"sum_hessian":[1.809976E3,8.3376184E2,9.762141E2,5.533509E2,2.8041092E2,6.878743E2,2.8833975E2,1.09691284E2,4.436596E2,1.7969087E2,1.00720055E2,2.4997174E2,4.379026E2,8.567613E1,2.0266362E2,6.364487E1,4.6046413E1,4.2373788E2,1.9921711E1,1.2291224E2,5.6778633E1,3.557994E1,6.5140114E1,1.3052336E2,1.1944837E2,4.1359286E0,4.3376666E2,4.599228E1,3.9683853E1,1.6048416E2,4.2179455E1],"tree_param":{"num_deleted":"0","num_feature":"21","num_nodes":"31","size_leaf_vector":"1"}},{"base_weights":[1.1340431E-2,-6.8454796E-1,4.9872684E-1,-9.794195E-1,-1.7088708E-1,-2.0706896E-1,6.656364E-1,-1.0247482E0,2.2386418E-1,-4.5233753E-1,1.6647506E-1,-8.14529E-1,6.2842355E-3,4.474833E-1,9.3319553E-1,-1.27823325E-2,-8.881709E-3,-6.6042594E-3,5.1751155E-3,-1.0285537E-2,-2.521412E-3,6.909377E-4,9.559388E-3,-9.49607E-3,7.3094373E-3,6.2197307E-3,-1.7163418E-3,3.2952166E-4,5.9866756E-3,9.656689E-3,6.338788E-3],"categories":[],"categories_nodes":[],"categories_segments":[],"categories_sizes":[],"default_left":[0,0,0,0,0,0,0,0,0,0,0,0,0,0,0,0,0,0,0,0,0,0,0,0,0,0,0,0,0,0,0],"id":34,"left_children":[1,3,5,7,9,11,13,15,17,19,21,23,25,27,29,-1,-1,-1,-1,-1,-1,-1,-1,-1,-1,-1,-1,-1,-1,-1,-1],"loss_changes":[6.134642E2,1.1267633E2,1.2544757E2,2.6033844E1,2.598925E1,2.6470627E1,4.9809387E1,1.4655182E1,5.0147347E0,1.6935514E1,9.533167E0,1.1776333E1,1.6770067E1,2.9807777E1,3.1355896E0,0E0,0E0,0E0,0E0,0E0,0E0,0E0,0E0,0E0,0E0,0E0,0E0,0E0,0E0,0E0,0E0],"parents":[2147483647,0,0,1,1,2,2,3,3,4,4,5,5,6,6,7,7,8,8,9,9,10,10,11,11,12,12,13,13,14,14],"right_children":[2,4,6,8,10,12,14,16,18,20,22,24,26,28,30,-1,-1,-1,-1,-1,-1,-1,-1,-1,-1,-1,-1,-1,-1,-1,-1],"split_conditions":[2E0,9E0,6E0,1E0,1E0,3E0,3E0,1E0,6E0,1E0,1E0,4E0,3E0,8E0,1.2E1,-1.27823325E-2,-8.881709E-3,-6.6042594E-3,5.1751155E-3,-1.0285537E-2,-2.521412E-3,6.909377E-4,9.559388E-3,-9.49607E-3,7.3094373E-3,6.2197307E-3,-1.7163418E-3,3.2952166E-4,5.9866756E-3,9.656689E-3,6.338788E-3],"split_indices":[15,18,18,16,17,18,15,15,18,15,16,15,20,18,18,0,0,0,0,0,0,0,0,0,0,0,0,0,0,0,0],"split_type":[0,0,0,0,0,0,0,0,0,0,0,0,0,0,0,0,0,0,0,0,0,0,0,0,0,0,0,0,0,0,0],"sum_hessian":[1.8067334E3,7.440201E2,1.0627134E3,4.721001E2,2.7191995E2,2.032036E2,8.5950977E2,4.551043E2,1.6995789E1,1.480586E2,1.2386137E2,5.20861E1,1.5111751E2,4.749411E2,3.8456866E2,1.5642438E2,2.9867993E2,3.925497E0,1.30702915E1,3.710969E1,1.10948906E2,1.1122869E2,1.2632669E1,4.825413E1,3.8319712E0,3.3319416E1,1.1779808E2,1.27250824E2,3.4769028E2,3.4492123E2,3.9647423E1],"tree_param":{"num_deleted":"0","num_feature":"21","num_nodes":"31","size_leaf_vector":"1"}},{"base_weights":[1.1728297E-2,-6.3085705E-1,4.7309548E-1,-9.087676E-1,-1.4926319E-1,-1.3277334E-1,7.120277E-1,-9.8060477E-1,2.4972858E-1,-7.12399E-1,5.341598E-2,-5.0982827E-1,3.19655E-1,4.389918E-1,1.1358091E0,-1.1396485E-2,-6.429157E-3,-1.5478983E-3,7.090933E-3,-1.0348866E-2,-2.682666E-3,-4.901842E-3,2.4945608E-3,-7.6563363E-3,-8.8699546E-4,-6.000378E-4,7.40975E-3,1.7630801E-3,7.813288E-3,9.687101E-3,1.2993574E-2],"categories":[],"categories_nodes":[],"categories_segments":[],"categories_sizes":[],"default_left":[0,0,0,0,0,0,0,0,0,0,0,0,0,0,0,0,0,0,0,0,0,0,0,0,0,0,0,0,0,0,0],"id":35,"left_children":[1,3,5,7,9,11,13,15,17,19,21,23,25,27,29,-1,-1,-1,-1,-1,-1,-1,-1,-1,-1,-1,-1,-1,-1,-1,-1],"loss_changes":[5.4475244E2,1.0264426E2,1.5492255E2,4.075296E1,3.2246124E1,5.190927E1,8.827234E1,2.3893402E1,5.5389137E0,1.0429146E1,2.233485E1,1.7797043E1,2.219881E1,4.196727E1,6.939514E0,0E0,0E0,0E0,0E0,0E0,0E0,0E0,0E0,0E0,0E0,0E0,0E0,0E0,0E0,0E0,0E0],"parents":[2147483647,0,0,1,1,2,2,3,3,4,4,5,5,6,6,7,7,8,8,9,9,10,10,11,11,12,12,13,13,14,14],"right_children":[2,4,6,8,10,12,14,16,18,20,22,24,26,28,30,-1,-1,-1,-1,-1,-1,-1,-1,-1,-1,-1,-1,-1,-1,-1,-1],"split_conditions":[2E0,9E0,7E0,1.2045648E0,1E0,1E0,3.571536E-1,1E0,1E0,1E0,-6.314929E-1,4.983888E-1,4.983888E-1,3E0,3E0,-1.1396485E-2,-6.429157E-3,-1.5478983E-3,7.090933E-3,-1.0348866E-2,-2.682666E-3,-4.901842E-3,2.4945608E-3,-7.6563363E-3,-8.8699546E-4,-6.000378E-4,7.40975E-3,1.7630801E-3,7.813288E-3,9.687101E-3,1.2993574E-2],"split_indices":[15,18,18,0,15,4,0,4,4,17,0,0,0,15,15,0,0,0,0,0,0,0,0,0,0,0,0,0,0,0,0],"split_type":[0,0,0,0,0,0,0,0,0,0,0,0,0,0,0,0,0,0,0,0,0,0,0,0,0,0,0,0,0,0,0],"sum_hessian":[1.8354692E3,7.669313E2,1.0685378E3,4.8574075E2,2.8119055E2,3.0233664E2,7.6620123E2,4.5752374E2,2.8217033E1,7.375377E1,2.0743677E2,1.6483546E2,1.3750117E2,4.6721658E2,2.9898468E2,3.0941946E2,1.4810426E2,1.5356805E1,1.2860228E1,4.1957794E1,3.1795977E1,5.458299E1,1.5285378E2,1.0203718E2,6.2798294E1,7.2777596E1,6.472357E1,2.6522092E2,2.0199567E2,1.5131139E2,1.476733E2],"tree_param":{"num_deleted":"0","num_feature":"21","num_nodes":"31","size_leaf_vector":"1"}},{"base_weights":[-2.1322774E-2,-6.158706E-1,4.9555734E-1,-7.694708E-1,9.261565E-2,1.9510305E-1,9.462019E-1,-8.4328544E-1,4.3890536E-1,-2.6624677E-1,4.8901623E-1,6.2770076E-2,6.818049E-1,-4.3295762E-1,9.7353697E-1,-9.883552E-3,-4.3670638E-3,-4.1483706E-4,8.224021E-3,-8.443792E-3,-9.795374E-4,3.8840084E-3,1.0248725E-2,-2.581698E-3,2.1187435E-3,4.595651E-4,8.194545E-3,-8.060686E-3,-4.8078882E-4,7.793967E-3,1.0873754E-2],"categories":[],"categories_nodes":[],"categories_segments":[],"categories_sizes":[],"default_left":[0,0,0,0,0,0,0,0,0,0,0,0,0,0,0,0,0,0,0,0,0,0,0,0,0,0,0,0,0,0,0],"id":36,"left_children":[1,3,5,7,9,11,13,15,17,19,21,23,25,27,29,-1,-1,-1,-1,-1,-1,-1,-1,-1,-1,-1,-1,-1,-1,-1,-1],"loss_changes":[5.607426E2,9.241568E1,1.3198001E2,6.2582794E1,2.1764702E1,3.7758255E1,1.513208E1,3.8359528E1,7.5526814E0,7.7465873E0,3.5170212E0,2.2189207E1,1.0934784E1,1.149672E0,7.615509E0,0E0,0E0,0E0,0E0,0E0,0E0,0E0,0E0,0E0,0E0,0E0,0E0,0E0,0E0,0E0,0E0],"parents":[2147483647,0,0,1,1,2,2,3,3,4,4,5,5,6,6,7,7,8,8,9,9,10,10,11,11,12,12,13,13,14,14],"right_children":[2,4,6,8,10,12,14,16,18,20,22,24,26,28,30,-1,-1,-1,-1,-1,-1,-1,-1,-1,-1,-1,-1,-1,-1,-1,-1],"split_conditions":[1E0,4.983888E-1,3.571536E-1,1E0,7E0,1E0,3E0,9E0,-3.4902248E-1,3E0,6.804475E-1,-4.9025768E-1,-7.727281E-1,-3.247376E-1,7.8085923E-1,-9.883552E-3,-4.3670638E-3,-4.1483706E-4,8.224021E-3,-8.443792E-3,-9.795374E-4,3.8840084E-3,1.0248725E-2,-2.581698E-3,2.1187435E-3,4.595651E-4,8.194545E-3,-8.060686E-3,-4.8078882E-4,7.793967E-3,1.0873754E-2],"split_indices":[3,0,0,8,18,8,18,18,0,18,1,0,0,1,0,0,0,0,0,0,0,0,0,0,0,0,0,0,0,0,0],"split_type":[0,0,0,0,0,0,0,0,0,0,0,0,0,0,0,0,0,0,0,0,0,0,0,0,0,0,0,0,0,0,0],"sum_hessian":[1.822688E3,8.475693E2,9.7511865E2,6.9648486E2,1.5108441E2,5.859118E2,3.8920688E2,6.566736E2,3.9811283E1,7.946914E1,7.1615265E1,4.6154724E2,1.2436455E2,7.2758083E0,3.8193106E2,4.829303E2,1.7374329E2,1.8068949E1,2.1742332E1,1.7011765E1,6.245738E1,6.1746265E1,9.869E0,1.4617691E2,3.1537033E2,2.2368954E1,1.0199559E2,3.138715E0,4.137093E0,1.4407379E2,2.3785728E2],"tree_param":{"num_deleted":"0","num_feature":"21","num_nodes":"31","size_leaf_vector":"1"}},{"base_weights":[9.323256E-3,-3.1551212E-1,5.6881154E-1,-7.83643E-1,4.6947878E-2,-4.5462053E-2,8.687084E-1,-1.0442992E0,-2.863934E-1,-2.6884273E-1,2.927279E-1,-5.485444E-1,4.953194E-1,7.407757E-1,1.1330564E0,-1.0864309E-2,-3.7053742E-3,-5.841183E-3,3.527306E-4,-6.558125E-3,-3.494662E-4,7.3989184E-4,5.1686172E-3,2.208303E-3,-7.1018576E-3,2.2840714E-3,1.1033808E-2,4.947932E-3,8.543313E-3,8.414469E-3,1.2522209E-2],"categories":[],"categories_nodes":[],"categories_segments":[],"categories_sizes":[],"default_left":[0,0,0,0,0,0,0,0,0,0,0,0,0,0,0,0,0,0,0,0,0,0,0,0,0,0,0,0,0,0,0],"id":37,"left_children":[1,3,5,7,9,11,13,15,17,19,21,23,25,27,29,-1,-1,-1,-1,-1,-1,-1,-1,-1,-1,-1,-1,-1,-1,-1,-1],"loss_changes":[3.3512042E2,1.9798907E2,1.24814804E2,6.5693756E1,5.1185863E1,6.09808E1,1.4554047E1,9.069366E0,1.6922377E1,2.6108505E1,1.813888E1,1.4592609E1,1.7287636E1,8.225739E0,4.0390472E0,0E0,0E0,0E0,0E0,0E0,0E0,0E0,0E0,0E0,0E0,0E0,0E0,0E0,0E0,0E0,0E0],"parents":[2147483647,0,0,1,1,2,2,3,3,4,4,5,5,6,6,7,7,8,8,9,9,10,10,11,11,12,12,13,13,14,14],"right_children":[2,4,6,8,10,12,14,16,18,20,22,24,26,28,30,-1,-1,-1,-1,-1,-1,-1,-1,-1,-1,-1,-1,-1,-1,-1,-1],"split_conditions":[2.1591838E-1,8E0,7E0,1E0,1E0,1E0,1.6779338E-1,1.7090001E0,-3.4902248E-1,-6.314929E-1,-3.4902248E-1,3E0,2.705405E-1,4.983888E-1,1E0,-1.0864309E-2,-3.7053742E-3,-5.841183E-3,3.527306E-4,-6.558125E-3,-3.494662E-4,7.3989184E-4,5.1686172E-3,2.208303E-3,-7.1018576E-3,2.2840714E-3,1.1033808E-2,4.947932E-3,8.543313E-3,8.414469E-3,1.2522209E-2],"split_indices":[0,18,18,4,4,4,2,2,0,0,0,20,2,0,4,0,0,0,0,0,0,0,0,0,0,0,0,0,0,0,0],"split_type":[0,0,0,0,0,0,0,0,0,0,0,0,0,0,0,0,0,0,0,0,0,0,0,0,0,0,0,0,0,0,0],"sum_hessian":[1.8419517E3,1.1656301E3,6.763215E2,5.081601E2,6.574701E2,2.2214795E2,4.541735E2,3.326737E2,1.7548639E2,2.8771082E2,3.6975928E2,1.1507797E2,1.0706998E2,3.086183E2,1.455552E2,3.1251877E2,2.0154936E1,9.071103E1,8.477535E1,1.0770849E2,1.8000233E2,1.8780504E2,1.8195424E2,1.9916061E1,9.516191E1,7.536408E1,3.1705893E1,9.916518E1,2.0945312E2,4.456377E1,1.0099143E2],"tree_param":{"num_deleted":"0","num_feature":"21","num_nodes":"31","size_leaf_vector":"1"}},{"base_weights":[4.7543026E-3,-6.7031467E-1,4.7614455E-1,-8.7642884E-1,-1.5596083E-1,-2.7261442E-1,6.5734124E-1,-1.1545922E0,-5.911279E-1,-5.1052594E-1,4.3089318E-1,-6.416901E-1,1.6615197E-1,-1.905021E-1,7.689658E-1,-1.32416235E-2,-1.03741465E-2,-8.658736E-3,-2.7299628E-3,-6.4373887E-3,5.373625E-3,-1.5101284E-3,5.7473728E-3,-7.378505E-3,2.7417305E-3,5.6439135E-3,-2.0194685E-3,-5.7135937E-3,2.6224137E-3,5.5052685E-3,1.0423954E-2],"categories":[],"categories_nodes":[],"categories_segments":[],"categories_sizes":[],"default_left":[0,0,0,0,0,0,0,0,0,0,0,0,0,0,0,0,0,0,0,0,0,0,0,0,0,0,0,0,0,0,0],"id":38,"left_children":[1,3,5,7,9,11,13,15,17,19,21,23,25,27,29,-1,-1,-1,-1,-1,-1,-1,-1,-1,-1,-1,-1,-1,-1,-1,-1],"loss_changes":[5.790748E2,7.918637E1,1.4555276E2,4.1691956E1,4.5012955E1,3.40299E1,8.1822754E1,3.9773865E0,2.2982155E1,1.9142166E1,6.918619E0,1.0240765E1,1.4260063E1,1.7600704E1,4.4987183E1,0E0,0E0,0E0,0E0,0E0,0E0,0E0,0E0,0E0,0E0,0E0,0E0,0E0,0E0,0E0,0E0],"parents":[2147483647,0,0,1,1,2,2,3,3,4,4,5,5,6,6,7,7,8,8,9,9,10,10,11,11,12,12,13,13,14,14],"right_children":[2,4,6,8,10,12,14,16,18,20,22,24,26,28,30,-1,-1,-1,-1,-1,-1,-1,-1,-1,-1,-1,-1,-1,-1,-1,-1],"split_conditions":[2E0,7.468316E-2,6E0,8E0,9E0,3.571536E-1,-7.727281E-1,1E0,-4.9025768E-1,1.4870353E0,1E0,4E0,5E0,3E0,3E0,-1.32416235E-2,-1.03741465E-2,-8.658736E-3,-2.7299628E-3,-6.4373887E-3,5.373625E-3,-1.5101284E-3,5.7473728E-3,-7.378505E-3,2.7417305E-3,5.6439135E-3,-2.0194685E-3,-5.7135937E-3,2.6224137E-3,5.5052685E-3,1.0423954E-2],"split_indices":[15,0,18,18,18,0,0,15,0,0,15,15,20,15,15,0,0,0,0,0,0,0,0,0,0,0,0,0,0,0,0],"split_type":[0,0,0,0,0,0,0,0,0,0,0,0,0,0,0,0,0,0,0,0,0,0,0,0,0,0,0,0,0,0,0],"sum_hessian":[1.8177228E3,7.472205E2,1.0705023E3,5.329504E2,2.1427017E2,2.0848312E2,8.6201917E2,2.6830798E2,2.6464236E2,1.3365103E2,8.061913E1,1.12983055E2,9.550007E1,1.0020514E2,7.61814E2,1.0543305E2,1.6287492E2,1.4108038E2,1.23562E2,1.18919106E2,1.4731924E1,1.5968883E1,6.465025E1,1.0242353E2,1.0559525E1,4.561585E1,4.9884216E1,5.4280907E1,4.592423E1,4.2516742E2,3.366466E2],"tree_param":{"num_deleted":"0","num_feature":"21","num_nodes":"31","size_leaf_vector":"1"}},{"base_weights":[3.5452025E-4,-4.928221E-1,3.9022723E-1,-9.1360986E-1,-1.4810659E-1,-2.0067279E-1,6.579458E-1,-1.0327296E0,6.5846235E-2,-2.967449E-1,5.379278E-1,-6.4136446E-1,1.9468412E-1,4.6365127E-1,9.862507E-1,-2.1073988E-3,-1.0861452E-2,-1.2739114E-3,8.340837E-3,-5.284718E-3,-5.788614E-4,9.290656E-4,7.232367E-3,-7.637173E-3,2.3536393E-3,7.530208E-3,-7.985875E-5,2.1359872E-3,6.5721017E-3,7.9785045E-3,1.25866765E-2],"categories":[],"categories_nodes":[],"categories_segments":[],"categories_sizes":[],"default_left":[0,0,0,0,0,0,0,0,0,0,0,0,0,0,0,0,0,0,0,0,0,0,0,0,0,0,0,0,0,0,0],"id":39,"left_children":[1,3,5,7,9,11,13,15,17,19,21,23,25,27,29,-1,-1,-1,-1,-1,-1,-1,-1,-1,-1,-1,-1,-1,-1,-1,-1],"loss_changes":[3.4865164E2,1.1599036E2,1.6033711E2,4.2107178E1,4.5155575E1,5.5274006E1,4.401413E1,1.3878754E1,6.045777E0,2.0079538E1,6.4423256E0,1.6261257E1,1.8972889E1,2.1149002E1,1.2253265E1,0E0,0E0,0E0,0E0,0E0,0E0,0E0,0E0,0E0,0E0,0E0,0E0,0E0,0E0,0E0,0E0],"parents":[2147483647,0,0,1,1,2,2,3,3,4,4,5,5,6,6,7,7,8,8,9,9,10,10,11,11,12,12,13,13,14,14],"right_children":[2,4,6,8,10,12,14,16,18,20,22,24,26,28,30,-1,-1,-1,-1,-1,-1,-1,-1,-1,-1,-1,-1,-1,-1,-1,-1],"split_conditions":[-2.0778726E-1,8E0,7E0,1E0,1E0,4.983888E-1,1E0,2E0,1E0,-6.314929E-1,-7.727281E-1,1E0,3E0,9E0,9.220944E-1,-2.1073988E-3,-1.0861452E-2,-1.2739114E-3,8.340837E-3,-5.284718E-3,-5.788614E-4,9.290656E-4,7.232367E-3,-7.637173E-3,2.3536393E-3,7.530208E-3,-7.985875E-5,2.1359872E-3,6.5721017E-3,7.9785045E-3,1.25866765E-2],"split_indices":[0,18,18,16,8,0,16,20,8,0,0,16,20,18,0,0,0,0,0,0,0,0,0,0,0,0,0,0,0,0,0],"split_type":[0,0,0,0,0,0,0,0,0,0,0,0,0,0,0,0,0,0,0,0,0,0,0,0,0,0,0,0,0,0,0],"sum_hessian":[1.8112861E3,7.9957947E2,1.0117067E3,3.593173E2,4.4026215E2,3.155298E2,6.9617694E2,3.2030762E2,3.900966E1,3.6232675E2,7.793539E1,1.4891583E2,1.6661395E2,4.3886432E2,2.5731262E2,1.9846294E1,3.0046133E2,3.1836016E1,7.173643E0,1.8329356E2,1.790332E2,2.335338E1,5.458201E1,1.3079192E2,1.8123913E1,4.3649155E1,1.229648E2,1.9240543E2,2.4645891E2,1.5443562E2,1.02877E2],"tree_param":{"num_deleted":"0","num_feature":"21","num_nodes":"31","size_leaf_vector":"1"}},{"base_weights":[-1.23619875E-2,-6.681754E-1,4.4582102E-1,-1.0022304E0,-3.3903885E-1,-5.849288E-2,6.340463E-1,-1.1508924E0,-6.239967E-1,-8.8322103E-1,-1.115257E-1,-3.8136384E-1,3.9944983E-1,-2.6245922E-1,7.570928E-1,-1.3229018E-2,-1.0348926E-2,-8.890011E-3,-2.7712295E-3,-1.16489455E-2,-7.3109036E-3,-6.723236E-3,6.757406E-4,-1.0548113E-2,-2.009637E-3,-1.9075585E-3,5.71553E-3,-5.4474166E-3,-3.3236455E-4,5.4301894E-3,1.0288752E-2],"categories":[],"categories_nodes":[],"categories_segments":[],"categories_sizes":[],"default_left":[0,0,0,0,0,0,0,0,0,0,0,0,0,0,0,0,0,0,0,0,0,0,0,0,0,0,0,0,0,0,0],"id":40,"left_children":[1,3,5,7,9,11,13,15,17,19,21,23,25,27,29,-1,-1,-1,-1,-1,-1,-1,-1,-1,-1,-1,-1,-1,-1,-1,-1],"loss_changes":[5.4950757E2,8.235901E1,1.0223366E2,2.0242615E1,4.6995308E1,4.355215E1,8.669208E1,3.9467163E0,9.622658E0,3.9476318E0,2.7101336E1,2.0764898E1,1.2487463E1,6.1529117E0,3.956964E1,0E0,0E0,0E0,0E0,0E0,0E0,0E0,0E0,0E0,0E0,0E0,0E0,0E0,0E0,0E0,0E0],"parents":[2147483647,0,0,1,1,2,2,3,3,4,4,5,5,6,6,7,7,8,8,9,9,10,10,11,11,12,12,13,13,14,14],"right_children":[2,4,6,8,10,12,14,16,18,20,22,24,26,28,30,-1,-1,-1,-1,-1,-1,-1,-1,-1,-1,-1,-1,-1,-1,-1,-1],"split_conditions":[2E0,8E0,7E0,7.468316E-2,-6.314929E-1,3E0,-7.727281E-1,1E0,6E0,1E0,1E0,3E0,4E0,-1.0551986E0,3E0,-1.3229018E-2,-1.0348926E-2,-8.890011E-3,-2.7712295E-3,-1.16489455E-2,-7.3109036E-3,-6.723236E-3,6.757406E-4,-1.0548113E-2,-2.009637E-3,-1.9075585E-3,5.71553E-3,-5.4474166E-3,-3.3236455E-4,5.4301894E-3,1.0288752E-2],"split_indices":[15,18,18,0,0,15,0,15,18,15,15,18,18,0,15,0,0,0,0,0,0,0,0,0,0,0,0,0,0,0,0],"split_type":[0,0,0,0,0,0,0,0,0,0,0,0,0,0,0,0,0,0,0,0,0,0,0,0,0,0,0,0,0,0,0],"sum_hessian":[1.8267588E3,7.5115125E2,1.0756075E3,3.7177536E2,3.7937592E2,2.925268E2,7.830807E2,2.6541364E2,1.0636171E2,1.10998856E2,2.6837704E2,1.7166336E2,1.2086345E2,9.437073E1,6.8870996E2,1.0270858E2,1.6270506E2,5.9410442E1,4.6951263E1,3.659154E1,7.440732E1,6.429678E1,2.0408026E2,3.5244785E1,1.3641856E2,2.7262352E1,9.36011E1,4.1673866E1,5.2696857E1,3.8693356E2,3.017764E2],"tree_param":{"num_deleted":"0","num_feature":"21","num_nodes":"31","size_leaf_vector":"1"}},{"base_weights":[-3.1065455E-2,-6.768005E-1,4.2550966E-1,-1.0209742E0,-1.0682351E-1,-8.7518185E-2,6.804835E-1,-1.2065602E-2,-8.1679106E-1,-5.772865E-1,7.818796E-2,-5.9414756E-1,1.7497769E-1,4.5218578E-1,9.2734337E-1,-1.2046214E-2,-6.1758165E-3,7.978421E-3,-6.6130483E-3,-1.9304851E-3,3.5546327E-3,-7.720211E-3,-1.4661112E-3,-4.7220718E-4,4.252424E-3,-1.3553064E-3,5.9569725E-3,9.602314E-3,-1.0955838E-3],"categories":[],"categories_nodes":[],"categories_segments":[],"categories_sizes":[],"default_left":[0,0,0,0,0,0,0,0,0,0,0,0,0,0,0,0,0,0,0,0,0,0,0,0,0,0,0,0,0],"id":41,"left_children":[1,3,5,7,9,11,13,-1,15,17,19,21,23,25,27,-1,-1,-1,-1,-1,-1,-1,-1,-1,-1,-1,-1,-1,-1],"loss_changes":[5.365688E2,1.4776483E2,1.3952383E2,1.6819946E1,2.4844831E1,4.7294884E1,3.972522E1,0E0,1.6780548E1,9.8328285E0,1.5514675E1,9.54567E0,1.3061124E1,3.1458824E1,1.1743927E1,0E0,0E0,0E0,0E0,0E0,0E0,0E0,0E0,0E0,0E0,0E0,0E0,0E0,0E0],"parents":[2147483647,0,0,1,1,2,2,3,3,4,4,5,5,6,6,8,8,9,9,10,10,11,11,12,12,13,13,14,14],"right_children":[2,4,6,8,10,12,14,-1,16,18,20,22,24,26,28,-1,-1,-1,-1,-1,-1,-1,-1,-1,-1,-1,-1,-1,-1],"split_conditions":[2E0,1E0,1E0,7E0,8E0,6E0,3E0,-1.2065602E-2,1E0,2E0,1E0,3E0,9E0,7E0,1E0,-1.2046214E-2,-6.1758165E-3,7.978421E-3,-6.6130483E-3,-1.9304851E-3,3.5546327E-3,-7.720211E-3,-1.4661112E-3,-4.7220718E-4,4.252424E-3,-1.3553064E-3,5.9569725E-3,9.602314E-3,-1.0955838E-3],"split_indices":[15,3,3,18,18,18,15,0,15,20,17,15,18,18,12,0,0,0,0,0,0,0,0,0,0,0,0,0,0],"split_type":[0,0,0,0,0,0,0,0,0,0,0,0,0,0,0,0,0,0,0,0,0,0,0,0,0,0,0,0,0],"sum_hessian":[1.8179707E3,7.5280084E2,1.0651699E3,4.688813E2,2.8391956E2,3.5385065E2,7.113192E2,2.4305481E2,2.2582648E2,7.953948E1,2.0438007E2,1.2033499E2,2.3351566E2,3.7102475E2,3.402945E2,7.492055E1,1.5090591E2,4.0907135E0,7.544877E1,1.0346864E2,1.0091142E2,8.559155E1,3.4743443E1,1.2412349E2,1.09392166E2,7.28286E1,2.9819614E2,3.2990463E2,1.0389854E1],"tree_param":{"num_deleted":"0","num_feature":"21","num_nodes":"29","size_leaf_vector":"1"}},{"base_weights":[1.52087305E-2,-6.462272E-1,4.802377E-1,-9.952885E-1,-6.960076E-2,-3.5560075E-2,7.4789834E-1,-1.2448179E0,-8.483169E-1,-3.4216538E-1,1.3439009E-1,-2.790439E-1,3.025569E-1,5.320396E-1,9.6992683E-1,-9.423464E-3,-1.300209E-2,-9.799361E-3,-5.772201E-3,3.4888645E-3,-4.188426E-3,-2.0708495E-3,2.056729E-3,-4.6521653E-3,1.4915259E-3,9.228339E-3,2.1329878E-3,2.715327E-3,6.6068526E-3,6.7809145E-3,1.08424425E-2],"categories":[],"categories_nodes":[],"categories_segments":[],"categories_sizes":[],"default_left":[0,0,0,0,0,0,0,0,0,0,0,0,0,0,0,0,0,0,0,0,0,0,0,0,0,0,0,0,0,0,0],"id":42,"left_children":[1,3,5,7,9,11,13,15,17,19,21,23,25,27,29,-1,-1,-1,-1,-1,-1,-1,-1,-1,-1,-1,-1,-1,-1,-1,-1],"loss_changes":[5.589315E2,1.5092313E2,1.4733153E2,1.6078583E1,1.5833861E1,3.0172531E1,3.3152435E1,1.6404724E0,1.0037949E1,6.601548E0,4.013221E0,1.7048723E1,8.300755E0,1.183213E1,1.0777435E1,0E0,0E0,0E0,0E0,0E0,0E0,0E0,0E0,0E0,0E0,0E0,0E0,0E0,0E0,0E0,0E0],"parents":[2147483647,0,0,1,1,2,2,3,3,4,4,5,5,6,6,7,7,8,8,9,9,10,10,11,11,12,12,13,13,14,14],"right_children":[2,4,6,8,10,12,14,16,18,20,22,24,26,28,30,-1,-1,-1,-1,-1,-1,-1,-1,-1,-1,-1,-1,-1,-1,-1,-1],"split_conditions":[2E0,1E0,1E0,1E0,1E0,1E0,3E0,5E0,1E0,3E0,1E0,3E0,2E0,1E0,1E0,-9.423464E-3,-1.300209E-2,-9.799361E-3,-5.772201E-3,3.4888645E-3,-4.188426E-3,-2.0708495E-3,2.056729E-3,-4.6521653E-3,1.4915259E-3,9.228339E-3,2.1329878E-3,2.715327E-3,6.6068526E-3,6.7809145E-3,1.08424425E-2],"split_indices":[15,3,3,15,4,4,15,20,4,20,15,15,20,4,4,0,0,0,0,0,0,0,0,0,0,0,0,0,0,0,0],"split_type":[0,0,0,0,0,0,0,0,0,0,0,0,0,0,0,0,0,0,0,0,0,0,0,0,0,0,0,0,0,0,0],"sum_hessian":[1.8151412E3,7.491685E2,1.0659727E3,4.662174E2,2.829511E2,3.6447504E2,7.014977E2,1.7004462E2,2.961728E2,1.2082804E2,1.6212308E2,2.1199123E2,1.5248381E2,3.5741287E2,3.4408478E2,2.9108118E1,1.4093651E2,1.9761482E2,9.855797E1,1.1713183E1,1.0911486E2,2.766946E1,1.3445361E2,1.4769115E2,6.430008E1,1.8007341E1,1.3447647E2,1.1918154E2,2.3823134E2,9.879848E1,2.4528629E2],"tree_param":{"num_deleted":"0","num_feature":"21","num_nodes":"31","size_leaf_vector":"1"}},{"base_weights":[3.7731242E-3,-6.5036815E-1,4.675294E-1,-9.283858E-1,-2.434939E-1,4.1962318E-2,7.626944E-1,-9.763608E-1,9.337008E-3,-3.4380248E-1,6.3804156E-1,-9.2038766E-2,9.182154E-1,5.31006E-1,1.0117816E0,-1.17109E-2,-8.608149E-3,-4.776502E-3,5.793396E-3,-8.619052E-3,-1.8728254E-3,4.656664E-3,1.3538481E-2,-2.880828E-3,2.7897374E-3,9.976482E-3,3.4693908E-3,4.068651E-3,9.321355E-3,6.1209183E-3,1.0345931E-2],"categories":[],"categories_nodes":[],"categories_segments":[],"categories_sizes":[],"default_left":[0,0,0,0,0,0,0,0,0,0,0,0,0,0,0,0,0,0,0,0,0,0,0,0,0,0,0,0,0,0,0],"id":43,"left_children":[1,3,5,7,9,11,13,15,17,19,21,23,25,27,29,-1,-1,-1,-1,-1,-1,-1,-1,-1,-1,-1,-1,-1,-1,-1,-1],"loss_changes":[5.531017E2,8.5332886E1,1.3398016E2,2.020755E1,2.7488668E1,5.1511463E1,3.5814117E1,8.602539E0,6.617549E0,2.234452E1,3.300191E0,2.7777315E1,2.2941933E0,1.5976303E1,2.124298E0,0E0,0E0,0E0,0E0,0E0,0E0,0E0,0E0,0E0,0E0,0E0,0E0,0E0,0E0,0E0,0E0],"parents":[2147483647,0,0,1,1,2,2,3,3,4,4,5,5,6,6,7,7,8,8,9,9,10,10,11,11,12,12,13,13,14,14],"right_children":[2,4,6,8,10,12,14,16,18,20,22,24,26,28,30,-1,-1,-1,-1,-1,-1,-1,-1,-1,-1,-1,-1,-1,-1,-1,-1],"split_conditions":[2E0,1E0,1E0,1E0,1E0,1E0,3E0,1E0,1E0,1E0,1E0,3E0,7E0,1E0,1E0,-1.17109E-2,-8.608149E-3,-4.776502E-3,5.793396E-3,-8.619052E-3,-1.8728254E-3,4.656664E-3,1.3538481E-2,-2.880828E-3,2.7897374E-3,9.976482E-3,3.4693908E-3,4.068651E-3,9.321355E-3,6.1209183E-3,1.0345931E-2],"split_indices":[15,4,4,16,8,8,15,15,17,15,16,15,20,16,13,0,0,0,0,0,0,0,0,0,0,0,0,0,0,0,0],"split_type":[0,0,0,0,0,0,0,0,0,0,0,0,0,0,0,0,0,0,0,0,0,0,0,0,0,0,0,0,0,0,0],"sum_hessian":[1.8212369E3,7.5536743E2,1.0658695E3,4.479803E2,3.0738715E2,4.3697864E2,6.2889087E2,4.2613736E2,2.1842913E1,2.765311E2,3.0856056E1,3.797936E2,5.7185013E1,3.2744745E2,3.014434E2,1.5529079E2,2.708466E2,1.1866594E1,9.976318E0,6.3112663E1,2.1341843E2,2.6197838E1,4.6582184E0,2.4863678E2,1.3115683E2,4.9549133E1,7.63588E0,2.5159772E2,7.5849754E1,1.777813E1,2.8366525E2],"tree_param":{"num_deleted":"0","num_feature":"21","num_nodes":"31","size_leaf_vector":"1"}},{"base_weights":[1.3345133E-2,-6.2741643E-1,4.490707E-1,-9.0782875E-1,-1.5694809E-1,3.489509E-2,7.232098E-1,-1.0737026E0,-5.3565174E-1,-6.193411E-1,8.556385E-3,-2.9120356E-1,4.9275556E-1,5.1365787E-1,9.786113E-1,-3.4017651E-3,-1.097574E-2,-5.885124E-3,6.368997E-3,-1.0326157E-2,-8.107485E-4,-1.5183588E-3,2.0950215E-3,-9.396837E-3,-9.94698E-4,1.7696021E-4,7.7119563E-3,2.6372962E-3,6.6439435E-3,6.7151827E-3,1.1235252E-2],"categories":[],"categories_nodes":[],"categories_segments":[],"categories_sizes":[],"default_left":[0,0,0,0,0,0,0,0,0,0,0,0,0,0,0,0,0,0,0,0,0,0,0,0,0,0,0,0,0,0,0],"id":44,"left_children":[1,3,5,7,9,11,13,15,17,19,21,23,25,27,29,-1,-1,-1,-1,-1,-1,-1,-1,-1,-1,-1,-1,-1,-1,-1,-1],"loss_changes":[5.1207745E2,9.779816E1,1.23929245E2,2.8127869E1,2.1314753E1,6.521952E1,3.4652252E1,5.240631E0,9.382721E0,1.624639E1,6.672608E0,3.1634695E1,2.4016869E1,1.3497162E1,1.2370819E1,0E0,0E0,0E0,0E0,0E0,0E0,0E0,0E0,0E0,0E0,0E0,0E0,0E0,0E0,0E0,0E0],"parents":[2147483647,0,0,1,1,2,2,3,3,4,4,5,5,6,6,7,7,8,8,9,9,10,10,11,11,12,12,13,13,14,14],"right_children":[2,4,6,8,10,12,14,16,18,20,22,24,26,28,30,-1,-1,-1,-1,-1,-1,-1,-1,-1,-1,-1,-1,-1,-1,-1,-1],"split_conditions":[2E0,9E0,8E0,1E0,1E0,3E0,3E0,2E0,1E0,1E0,1E0,4E0,1E0,1E0,1E0,-3.4017651E-3,-1.097574E-2,-5.885124E-3,6.368997E-3,-1.0326157E-2,-8.107485E-4,-1.5183588E-3,2.0950215E-3,-9.396837E-3,-9.94698E-4,1.7696021E-4,7.7119563E-3,2.6372962E-3,6.6439435E-3,6.7151827E-3,1.1235252E-2],"split_indices":[15,18,18,4,15,15,15,20,8,17,17,18,4,4,4,0,0,0,0,0,0,0,0,0,0,0,0,0,0,0,0],"split_type":[0,0,0,0,0,0,0,0,0,0,0,0,0,0,0,0,0,0,0,0,0,0,0,0,0,0,0,0,0,0,0],"sum_hessian":[1.8321042E3,7.413957E2,1.0907085E3,4.6394305E2,2.7745267E2,4.3485187E2,6.558567E2,3.196118E2,1.4433125E2,7.240963E1,2.0504303E2,2.541818E2,1.8067007E2,3.619197E2,2.9393695E2,1.0554095E1,3.090577E2,1.3858183E2,5.749417E0,4.044104E1,3.1968586E1,1.14163574E2,9.087946E1,5.7113167E1,1.9706862E2,6.715588E1,1.1351419E2,1.3719443E2,2.2472527E2,9.604278E1,1.9789418E2],"tree_param":{"num_deleted":"0","num_feature":"21","num_nodes":"31","size_leaf_vector":"1"}},{"base_weights":[1.0461279E-2,-5.6814796E-1,4.8881665E-1,-6.973219E-1,2.2082786E-1,2.327544E-1,8.835983E-1,-9.1188604E-1,-3.215906E-1,-4.2079386E-1,4.886085E-1,5.1039997E-2,7.335135E-1,7.3301536E-1,1.186125E0,-1.0013722E-2,-2.2133081E-3,-5.7640746E-3,1.3072836E-3,-5.7382584E-3,2.8470524E-3,3.4616468E-3,1.1151205E-2,-3.2262038E-3,1.9700385E-3,2.8683175E-4,8.648237E-3,4.4889627E-3,9.08332E-3,8.899196E-3,1.2892814E-2],"categories":[],"categories_nodes":[],"categories_segments":[],"categories_sizes":[],"default_left":[0,0,0,0,0,0,0,0,0,0,0,0,0,0,0,0,0,0,0,0,0,0,0,0,0,0,0,0,0,0,0],"id":45,"left_children":[1,